{"learner":{"attributes":{"best_iteration":"706","best_score":"5.831689682750801","scikit_learn":"{\"_estimator_type\": \"regressor\"}"},"feature_names":[],"feature_types":[],"gradient_booster":{"model":{"cats":{"enc":[],"feature_segments":[],"sorted_idx":[]},"gbtree_model_param":{"num_parallel_tree":"1","num_trees":"757"},"iteration_indptr":[0,1,2,3,4,5,6,7,8,9,10,11,12,13,14,15,16,17,18,19,20,21,22,23,24,25,26,27,28,29,30,31,32,33,34,35,36,37,38,39,40,41,42,43,44,45,46,47,48,49,50,51,52,53,54,55,56,57,58,59,60,61,62,63,64,65,66,67,68,69,70,71,72,73,74,75,76,77,78,79,80,81,82,83,84,85,86,87,88,89,90,91,92,93,94,95,96,97,98,99,100,101,102,103,104,105,106,107,108,109,110,111,112,113,114,115,116,117,118,119,120,121,122,123,124,125,126,127,128,129,130,131,132,133,134,135,136,137,138,139,140,141,142,143,144,145,146,147,148,149,150,151,152,153,154,155,156,157,158,159,160,161,162,163,164,165,166,167,168,169,170,171,172,173,174,175,176,177,178,179,180,181,182,183,184,185,186,187,188,189,190,191,192,193,194,195,196,197,198,199,200,201,202,203,204,205,206,207,208,209,210,211,212,213,214,215,216,217,218,219,220,221,222,223,224,225,226,227,228,229,230,231,232,233,234,235,236,237,238,239,240,241,242,243,244,245,246,247,248,249,250,251,252,253,254,255,256,257,258,259,260,261,262,263,264,265,266,267,268,269,270,271,272,273,274,275,276,277,278,279,280,281,282,283,284,285,286,287,288,289,290,291,292,293,294,295,296,297,298,299,300,301,302,303,304,305,306,307,308,309,310,311,312,313,314,315,316,317,318,319,320,321,322,323,324,325,326,327,328,329,330,331,332,333,334,335,336,337,338,339,340,341,342,343,344,345,346,347,348,349,350,351,352,353,354,355,356,357,358,359,360,361,362,363,364,365,366,367,368,369,370,371,372,373,374,375,376,377,378,379,380,381,382,383,384,385,386,387,388,389,390,391,392,393,394,395,396,397,398,399,400,401,402,403,404,405,406,407,408,409,410,411,412,413,414,415,416,417,418,419,420,421,422,423,424,425,426,427,428,429,430,431,432,433,434,435,436,437,438,439,440,441,442,443,444,445,446,447,448,449,450,451,452,453,454,455,456,457,458,459,460,461,462,463,464,465,466,467,468,469,470,471,472,473,474,475,476,477,478,479,480,481,482,483,484,485,486,487,488,489,490,491,492,493,494,495,496,497,498,499,500,501,502,503,504,505,506,507,508,509,510,511,512,513,514,515,516,517,518,519,520,521,522,523,524,525,526,527,528,529,530,531,532,533,534,535,536,537,538,539,540,541,542,543,544,545,546,547,548,549,550,551,552,553,554,555,556,557,558,559,560,561,562,563,564,565,566,567,568,569,570,571,572,573,574,575,576,577,578,579,580,581,582,583,584,585,586,587,588,589,590,591,592,593,594,595,596,597,598,599,600,601,602,603,604,605,606,607,608,609,610,611,612,613,614,615,616,617,618,619,620,621,622,623,624,625,626,627,628,629,630,631,632,633,634,635,636,637,638,639,640,641,642,643,644,645,646,647,648,649,650,651,652,653,654,655,656,657,658,659,660,661,662,663,664,665,666,667,668,669,670,671,672,673,674,675,676,677,678,679,680,681,682,683,684,685,686,687,688,689,690,691,692,693,694,695,696,697,698,699,700,701,702,703,704,705,706,707,708,709,710,711,712,713,714,715,716,717,718,719,720,721,722,723,724,725,726,727,728,729,730,731,732,733,734,735,736,737,738,739,740,741,742,743,744,745,746,747,748,749,750,751,752,753,754,755,756,757],"tree_info":[0,0,0,0,0,0,0,0,0,0,0,0,0,0,0,0,0,0,0,0,0,0,0,0,0,0,0,0,0,0,0,0,0,0,0,0,0,0,0,0,0,0,0,0,0,0,0,0,0,0,0,0,0,0,0,0,0,0,0,0,0,0,0,0,0,0,0,0,0,0,0,0,0,0,0,0,0,0,0,0,0,0,0,0,0,0,0,0,0,0,0,0,0,0,0,0,0,0,0,0,0,0,0,0,0,0,0,0,0,0,0,0,0,0,0,0,0,0,0,0,0,0,0,0,0,0,0,0,0,0,0,0,0,0,0,0,0,0,0,0,0,0,0,0,0,0,0,0,0,0,0,0,0,0,0,0,0,0,0,0,0,0,0,0,0,0,0,0,0,0,0,0,0,0,0,0,0,0,0,0,0,0,0,0,0,0,0,0,0,0,0,0,0,0,0,0,0,0,0,0,0,0,0,0,0,0,0,0,0,0,0,0,0,0,0,0,0,0,0,0,0,0,0,0,0,0,0,0,0,0,0,0,0,0,0,0,0,0,0,0,0,0,0,0,0,0,0,0,0,0,0,0,0,0,0,0,0,0,0,0,0,0,0,0,0,0,0,0,0,0,0,0,0,0,0,0,0,0,0,0,0,0,0,0,0,0,0,0,0,0,0,0,0,0,0,0,0,0,0,0,0,0,0,0,0,0,0,0,0,0,0,0,0,0,0,0,0,0,0,0,0,0,0,0,0,0,0,0,0,0,0,0,0,0,0,0,0,0,0,0,0,0,0,0,0,0,0,0,0,0,0,0,0,0,0,0,0,0,0,0,0,0,0,0,0,0,0,0,0,0,0,0,0,0,0,0,0,0,0,0,0,0,0,0,0,0,0,0,0,0,0,0,0,0,0,0,0,0,0,0,0,0,0,0,0,0,0,0,0,0,0,0,0,0,0,0,0,0,0,0,0,0,0,0,0,0,0,0,0,0,0,0,0,0,0,0,0,0,0,0,0,0,0,0,0,0,0,0,0,0,0,0,0,0,0,0,0,0,0,0,0,0,0,0,0,0,0,0,0,0,0,0,0,0,0,0,0,0,0,0,0,0,0,0,0,0,0,0,0,0,0,0,0,0,0,0,0,0,0,0,0,0,0,0,0,0,0,0,0,0,0,0,0,0,0,0,0,0,0,0,0,0,0,0,0,0,0,0,0,0,0,0,0,0,0,0,0,0,0,0,0,0,0,0,0,0,0,0,0,0,0,0,0,0,0,0,0,0,0,0,0,0,0,0,0,0,0,0,0,0,0,0,0,0,0,0,0,0,0,0,0,0,0,0,0,0,0,0,0,0,0,0,0,0,0,0,0,0,0,0,0,0,0,0,0,0,0,0,0,0,0,0,0,0,0,0,0,0,0,0,0,0,0,0,0,0,0,0,0,0,0,0,0,0,0,0,0,0,0,0,0,0,0,0,0,0,0,0,0,0,0,0,0,0,0,0,0,0,0,0,0,0,0,0,0,0,0,0,0,0,0,0,0,0,0,0,0,0,0,0,0,0,0,0,0,0,0,0,0,0,0,0,0,0,0,0,0,0,0,0,0,0,0,0,0,0,0,0,0,0,0,0,0,0,0,0,0,0,0,0,0,0,0,0,0,0,0,0,0,0,0,0,0,0,0,0,0,0,0,0,0,0,0,0,0,0,0,0,0,0,0,0,0,0,0,0,0],"trees":[{"base_weights":[1.646807E-1,-1.0495554E1,5.3871117E0,-4.28616E0,-1.3900139E1,8.680714E0,7.187738E-1,-1.077583E-2,-7.387583E-2,-7.0601754E-2,-1.4658387E-1,1.0058072E-1,-1.9072782E-2,3.8452733E-2,-4.399434E-2],"categories":[],"categories_nodes":[],"categories_segments":[],"categories_sizes":[],"default_left":[0,0,0,0,0,0,0,0,0,0,0,0,0,0,0],"id":0,"left_children":[1,3,5,7,9,11,13,-1,-1,-1,-1,-1,-1,-1,-1],"loss_changes":[3.7078645E4,4.570172E3,6.866674E3,7.781804E2,6.2778906E2,3.8400488E3,2.9933032E3,0E0,0E0,0E0,0E0,0E0,0E0,0E0,0E0],"parents":[2147483647,0,0,1,1,2,2,3,3,4,4,5,5,6,6],"right_children":[2,4,6,8,10,12,14,-1,-1,-1,-1,-1,-1,-1,-1],"split_conditions":[9.1204584E2,1.4269557E1,1.1223956E1,1.2928446E1,7.2330536E1,8.163536E1,2E-1,-1.077583E-2,-7.387583E-2,-7.0601754E-2,-1.4658387E-1,1.0058072E-1,-1.9072782E-2,3.8452733E-2,-4.399434E-2],"split_indices":[23,7,7,22,1,1,4,0,0,0,0,0,0,0,0],"split_type":[0,0,0,0,0,0,0,0,0,0,0,0,0,0,0],"sum_hessian":[6.64E2,2.18E2,4.46E2,7.8E1,1.4E2,2.61E2,1.85E2,3.9E1,3.9E1,1.5E1,1.25E2,2.31E2,3E1,1.15E2,7E1],"tree_param":{"num_deleted":"0","num_feature":"27","num_nodes":"15","size_leaf_vector":"1"}},{"base_weights":[6.445293E-1,-9.820986E0,5.752939E0,-2.9072466E0,-1.3459825E1,9.602839E0,1.055377E0,2.7138738E-2,-4.9353052E-2,-1.417566E-1,-5.5964783E-2,1.1160501E-1,1.1187048E-3,3.5686325E-2,-4.4416454E-2],"categories":[],"categories_nodes":[],"categories_segments":[],"categories_sizes":[],"default_left":[0,0,0,0,0,0,0,0,0,0,0,0,0,0,0],"id":1,"left_children":[1,3,5,7,9,11,13,-1,-1,-1,-1,-1,-1,-1,-1],"loss_changes":[3.3898035E4,5.1937305E3,7.6941377E3,8.45591E2,6.8618945E2,3.4581426E3,2.6822275E3,0E0,0E0,0E0,0E0,0E0,0E0,0E0,0E0],"parents":[2147483647,0,0,1,1,2,2,3,3,4,4,5,5,6,6],"right_children":[2,4,6,8,10,12,14,-1,-1,-1,-1,-1,-1,-1,-1],"split_conditions":[9.121445E2,1.3058353E1,1.0936132E1,8.880854E0,2.472514E1,7.925609E1,7E-1,2.7138738E-2,-4.9353052E-2,-1.417566E-1,-5.5964783E-2,1.1160501E-1,1.1187048E-3,3.5686325E-2,-4.4416454E-2],"split_indices":[18,2,2,17,0,1,9,0,0,0,0,0,0,0,0],"split_type":[0,0,0,0,0,0,0,0,0,0,0,0,0,0,0],"sum_hessian":[6.32E2,2.07E2,4.25E2,7.2E1,1.35E2,2.33E2,1.92E2,1.9E1,5.3E1,1.23E2,1.2E1,2E2,3.3E1,1.32E2,6E1],"tree_param":{"num_deleted":"0","num_feature":"27","num_nodes":"15","size_leaf_vector":"1"}},{"base_weights":[-1.760308E-1,-1.032569E1,5.9991956E0,-4.269074E0,-1.408299E1,9.606929E0,1.5061235E0,-4.8049874E-4,-6.800888E-2,-1.4495575E-1,-3.4657653E-2,1.0768847E-1,2.9959073E-3,4.4776276E-2,-5.436761E-2],"categories":[],"categories_nodes":[],"categories_segments":[],"categories_sizes":[],"default_left":[0,0,0,0,0,0,0,0,0,0,0,0,0,0,0],"id":2,"left_children":[1,3,5,7,9,11,13,-1,-1,-1,-1,-1,-1,-1,-1],"loss_changes":[4.092699E4,5.56074E3,6.56671E3,1.0256105E3,6.1560156E2,2.4300098E3,3.7791511E3,0E0,0E0,0E0,0E0,0E0,0E0,0E0,0E0],"parents":[2147483647,0,0,1,1,2,2,3,3,4,4,5,5,6,6],"right_children":[2,4,6,8,10,12,14,-1,-1,-1,-1,-1,-1,-1,-1],"split_conditions":[9.122392E2,1.4269557E1,1.0990547E1,9.203701E0,2.506889E1,7.999271E1,7E-1,-4.8049874E-4,-6.800888E-2,-1.4495575E-1,-3.4657653E-2,1.0768847E-1,2.9959073E-3,4.4776276E-2,-5.436761E-2],"split_indices":[18,2,2,2,0,1,4,0,0,0,0,0,0,0,0],"split_type":[0,0,0,0,0,0,0,0,0,0,0,0,0,0,0],"sum_hessian":[6.51E2,2.46E2,4.05E2,9.5E1,1.51E2,2.24E2,1.81E2,3.6E1,5.9E1,1.45E2,6E0,1.99E2,2.5E1,1.27E2,5.4E1],"tree_param":{"num_deleted":"0","num_feature":"27","num_nodes":"15","size_leaf_vector":"1"}},{"base_weights":[-4.3535736E-1,-1.0293035E1,5.081284E0,-3.7185228E0,-1.3792324E1,8.46545E0,-4.153892E-1,7.989909E-3,-5.360888E-2,-1.4250417E-1,-4.87945E-2,1.0036156E-1,-4.2434055E-3,2.7860662E-2,-5.8509406E-2],"categories":[],"categories_nodes":[],"categories_segments":[],"categories_sizes":[],"default_left":[0,0,0,0,0,0,0,0,0,0,0,0,0,0,0],"id":3,"left_children":[1,3,5,7,9,11,13,-1,-1,-1,-1,-1,-1,-1,-1],"loss_changes":[3.5617652E4,5.3551504E3,7.816209E3,6.200941E2,5.5515625E2,3.634707E3,2.817971E3,0E0,0E0,0E0,0E0,0E0,0E0,0E0,0E0],"parents":[2147483647,0,0,1,1,2,2,3,3,4,4,5,5,6,6],"right_children":[2,4,6,8,10,12,14,-1,-1,-1,-1,-1,-1,-1,-1],"split_conditions":[9.1204584E2,1.4082316E1,1.1438322E1,7.099996E0,2.4887987E1,1.35E1,2.4285715E0,7.989909E-3,-5.360888E-2,-1.4250417E-1,-4.87945E-2,1.0036156E-1,-4.2434055E-3,2.7860662E-2,-5.8509406E-2],"split_indices":[23,2,2,2,5,9,19,0,0,0,0,0,0,0,0],"split_type":[0,0,0,0,0,0,0,0,0,0,0,0,0,0,0],"sum_hessian":[6.53E2,2.34E2,4.19E2,8.2E1,1.52E2,2.59E2,1.6E2,2.2E1,6E1,1.44E2,8E0,2.2E2,3.9E1,1.01E2,5.9E1],"tree_param":{"num_deleted":"0","num_feature":"27","num_nodes":"15","size_leaf_vector":"1"}},{"base_weights":[3.733561E-1,5.3767667E0,-9.434102E0,8.088009E0,-1.981936E0,-1.2658044E1,7.023367E-1,1.10642076E-1,4.5781408E-2,2.659954E-2,-5.1575795E-2,-9.6464716E-2,-1.4014478E-1,4.308103E-2,-8.355975E-2],"categories":[],"categories_nodes":[],"categories_segments":[],"categories_sizes":[],"default_left":[0,0,0,0,0,0,0,0,0,0,0,0,0,0,0],"id":4,"left_children":[1,3,5,7,9,11,13,-1,-1,-1,-1,-1,-1,-1,-1],"loss_changes":[3.2535557E4,8.774618E3,7.329049E3,3.3025332E3,1.7678965E3,5.5925977E2,1.8324171E3,0E0,0E0,0E0,0E0,0E0,0E0,0E0,0E0],"parents":[2147483647,0,0,1,1,2,2,3,3,4,4,5,5,6,6],"right_children":[2,4,6,8,10,12,14,-1,-1,-1,-1,-1,-1,-1,-1],"split_conditions":[1.30134735E1,7.760716E1,9.129538E2,1.0814528E1,2.2139822E1,1.5823091E1,7.792456E1,1.10642076E-1,4.5781408E-2,2.659954E-2,-5.1575795E-2,-9.6464716E-2,-1.4014478E-1,4.308103E-2,-8.355975E-2],"split_indices":[17,1,3,22,15,17,6,0,0,0,0,0,0,0,0],"split_type":[0,0,0,0,0,0,0,0,0,0,0,0,0,0,0],"sum_hessian":[6.61E2,4.38E2,2.23E2,3.2E2,1.18E2,1.69E2,5.4E1,1.72E2,1.48E2,4.8E1,7E1,5.5E1,1.14E2,3.9E1,1.5E1],"tree_param":{"num_deleted":"0","num_feature":"27","num_nodes":"15","size_leaf_vector":"1"}},{"base_weights":[-1.3499577E-1,-9.657216E0,5.5411425E0,-3.3344674E0,-1.3445531E1,9.447068E0,1.6653472E0,2.6593974E-2,-4.9309444E-2,-1.3903703E-1,-3.5177287E-2,1.1037135E-1,1.5448297E-2,3.8399853E-2,-7.126863E-2],"categories":[],"categories_nodes":[],"categories_segments":[],"categories_sizes":[],"default_left":[0,0,0,0,0,0,0,0,0,0,0,0,0,0,0],"id":5,"left_children":[1,3,5,7,9,11,13,-1,-1,-1,-1,-1,-1,-1,-1],"loss_changes":[3.50235E4,5.7516855E3,6.1305264E3,8.9346765E2,6.3793945E2,2.5210977E3,3.9469417E3,0E0,0E0,0E0,0E0,0E0,0E0,0E0,0E0],"parents":[2147483647,0,0,1,1,2,2,3,3,4,4,5,5,6,6],"right_children":[2,4,6,8,10,12,14,-1,-1,-1,-1,-1,-1,-1,-1],"split_conditions":[9.12162E2,1.4082316E1,1.0464087E1,7.2769184E0,2.4887987E1,1.33E1,6.8E0,2.6593974E-2,-4.9309444E-2,-1.3903703E-1,-3.5177287E-2,1.1037135E-1,1.5448297E-2,3.8399853E-2,-7.126863E-2],"split_indices":[23,2,2,2,5,9,4,0,0,0,0,0,0,0,0],"split_type":[0,0,0,0,0,0,0,0,0,0,0,0,0,0,0],"sum_hessian":[6.46E2,2.41E2,4.05E2,9.1E1,1.5E2,2.01E2,2.04E2,1.9E1,7.2E1,1.43E2,7E0,1.67E2,3.4E1,1.64E2,4E1],"tree_param":{"num_deleted":"0","num_feature":"27","num_nodes":"15","size_leaf_vector":"1"}},{"base_weights":[5.587333E-1,5.497243E0,-9.209576E0,7.8349075E0,-9.2839426E-1,1.990976E0,-1.1989436E1,1.8491933E-1,6.91457E-2,3.6170814E-2,-4.4423692E-2,4.090931E-2,-3.4928303E-2,-4.283739E-2,-1.2829553E-1],"categories":[],"categories_nodes":[],"categories_segments":[],"categories_sizes":[],"default_left":[0,0,0,0,0,0,0,0,0,0,0,0,0,0,0],"id":6,"left_children":[1,3,5,7,9,11,13,-1,-1,-1,-1,-1,-1,-1,-1],"loss_changes":[3.1889615E4,6.6014873E3,6.9360566E3,3.030332E3,1.900846E3,5.324975E2,1.0973594E3,0E0,0E0,0E0,0E0,0E0,0E0,0E0,0E0],"parents":[2147483647,0,0,1,1,2,2,3,3,4,4,5,5,6,6],"right_children":[2,4,6,8,10,12,14,-1,-1,-1,-1,-1,-1,-1,-1],"split_conditions":[1.32626915E1,7E0,4.0642858E0,6.962127E0,1.3400001E1,2.3936598E1,1.1594654E1,1.8491933E-1,6.91457E-2,3.6170814E-2,-4.4423692E-2,4.090931E-2,-3.4928303E-2,-4.283739E-2,-1.2829553E-1],"split_indices":[7,9,24,7,4,10,22,0,0,0,0,0,0,0,0],"split_type":[0,0,0,0,0,0,0,0,0,0,0,0,0,0,0],"sum_hessian":[6.59E2,4.38E2,2.21E2,3.21E2,1.17E2,4.4E1,1.77E2,2.4E1,2.97E2,5.1E1,6.6E1,3.2E1,1.2E1,1.8E1,1.59E2],"tree_param":{"num_deleted":"0","num_feature":"27","num_nodes":"15","size_leaf_vector":"1"}},{"base_weights":[3.7690375E-2,-1.0097823E1,5.293927E0,-2.4145098E0,-1.3108037E1,7.905619E0,-4.100667E-1,3.8363722E-3,-5.804812E-2,-2.3031557E-2,-1.3441722E-1,9.173336E-2,1.5103419E-2,2.8674895E-2,-6.1048135E-2],"categories":[],"categories_nodes":[],"categories_segments":[],"categories_sizes":[],"default_left":[0,0,0,0,0,0,0,0,0,0,0,0,0,0,0],"id":7,"left_children":[1,3,5,7,9,11,13,-1,-1,-1,-1,-1,-1,-1,-1],"loss_changes":[3.4788535E4,5.1259883E3,6.4089834E3,6.093672E2,5.459121E2,2.3778281E3,2.5559255E3,0E0,0E0,0E0,0E0,0E0,0E0,0E0,0E0],"parents":[2147483647,0,0,1,1,2,2,3,3,4,4,5,5,6,6],"right_children":[2,4,6,8,10,12,14,-1,-1,-1,-1,-1,-1,-1,-1],"split_conditions":[9.1204584E2,1.2622288E1,1.167342E1,1.2928446E1,7.084433E1,1.33E1,5E-1,3.8363722E-3,-5.804812E-2,-2.3031557E-2,-1.3441722E-1,9.173336E-2,1.5103419E-2,2.8674895E-2,-6.1048135E-2],"split_indices":[23,2,2,22,1,9,4,0,0,0,0,0,0,0,0],"split_type":[0,0,0,0,0,0,0,0,0,0,0,0,0,0,0],"sum_hessian":[6.51E2,2.22E2,4.29E2,6.3E1,1.59E2,2.94E2,1.35E2,3.5E1,2.8E1,5E0,1.54E2,2.45E2,4.9E1,8.6E1,4.9E1],"tree_param":{"num_deleted":"0","num_feature":"27","num_nodes":"15","size_leaf_vector":"1"}},{"base_weights":[4.8612183E-1,-9.191537E0,5.717377E0,-1.7808179E0,-1.2787672E1,1.0338528E1,1.8582685E0,-3.0782437E-2,6.0476813E-2,-8.826358E-2,-1.4219934E-1,1.452641E-1,7.774542E-2,4.9712796E-2,-4.2319365E-2],"categories":[],"categories_nodes":[],"categories_segments":[],"categories_sizes":[],"default_left":[0,0,0,0,0,0,0,0,0,0,0,0,0,0,0],"id":8,"left_children":[1,3,5,7,9,11,13,-1,-1,-1,-1,-1,-1,-1,-1],"loss_changes":[3.260527E4,6.0001133E3,7.435199E3,7.803835E2,7.368828E2,1.9272207E3,4.362621E3,0E0,0E0,0E0,0E0,0E0,0E0,0E0,0E0],"parents":[2147483647,0,0,1,1,2,2,3,3,4,4,5,5,6,6],"right_children":[2,4,6,8,10,12,14,-1,-1,-1,-1,-1,-1,-1,-1],"split_conditions":[9.122043E2,1.2372422E1,1.0295132E1,2.4887987E1,1.5836975E1,2.227943E1,7E-1,-3.0782437E-2,6.0476813E-2,-8.826358E-2,-1.4219934E-1,1.452641E-1,7.774542E-2,4.9712796E-2,-4.2319365E-2],"split_indices":[23,2,2,0,2,20,4,0,0,0,0,0,0,0,0],"split_type":[0,0,0,0,0,0,0,0,0,0,0,0,0,0,0],"sum_hessian":[6.42E2,2.25E2,4.17E2,7.4E1,1.51E2,1.89E2,2.28E2,6.4E1,1E1,4.2E1,1.09E2,7E1,1.19E2,1.51E2,7.7E1],"tree_param":{"num_deleted":"0","num_feature":"27","num_nodes":"15","size_leaf_vector":"1"}},{"base_weights":[2.1423372E-2,-9.094271E0,5.255687E0,-2.2410946E0,-1.2661149E1,7.9534206E0,8.918169E-2,-3.668939E-2,5.61969E-2,-8.911771E-2,-1.3931437E-1,9.4686076E-2,-2.6555648E-3,2.4929501E-2,-5.3213242E-2],"categories":[],"categories_nodes":[],"categories_segments":[],"categories_sizes":[],"default_left":[0,0,0,0,0,0,0,0,0,0,0,0,0,0,0],"id":9,"left_children":[1,3,5,7,9,11,13,-1,-1,-1,-1,-1,-1,-1,-1],"loss_changes":[3.0871004E4,5.7405156E3,5.727749E3,9.409844E2,6.140801E2,3.3649023E3,1.8600615E3,0E0,0E0,0E0,0E0,0E0,0E0,0E0,0E0],"parents":[2147483647,0,0,1,1,2,2,3,3,4,4,5,5,6,6],"right_children":[2,4,6,8,10,12,14,-1,-1,-1,-1,-1,-1,-1,-1],"split_conditions":[9.12162E2,1.2914031E1,1.1705655E1,2.4887987E1,1.568377E1,1.35E1,2.3E0,-3.668939E-2,5.61969E-2,-8.911771E-2,-1.3931437E-1,9.4686076E-2,-2.6555648E-3,2.4929501E-2,-5.3213242E-2],"split_indices":[23,2,2,0,2,9,9,0,0,0,0,0,0,0,0],"split_type":[0,0,0,0,0,0,0,0,0,0,0,0,0,0,0],"sum_hessian":[6.45E2,2.35E2,4.1E2,8.1E1,1.54E2,2.69E2,1.41E2,6.9E1,1.2E1,4.1E1,1.13E2,2.27E2,4.2E1,9.8E1,4.3E1],"tree_param":{"num_deleted":"0","num_feature":"27","num_nodes":"15","size_leaf_vector":"1"}},{"base_weights":[-7.786548E-2,4.5779896E0,-9.859076E0,-2.030651E0,6.8514256E0,-1.2356446E1,-1.2207816E0,-3.9190155E-2,5.1508255E-2,1.1447457E-1,5.0817546E-2,-8.108306E-2,-1.3526835E-1,1.4352664E-2,-6.954588E-2],"categories":[],"categories_nodes":[],"categories_segments":[],"categories_sizes":[],"default_left":[0,0,0,0,0,0,0,0,0,0,0,0,0,0,0],"id":10,"left_children":[1,3,5,7,9,11,13,-1,-1,-1,-1,-1,-1,-1,-1],"loss_changes":[3.0784564E4,6.8950537E3,4.687834E3,1.6204132E3,2.715337E3,7.3058594E2,7.71445E2,0E0,0E0,0E0,0E0,0E0,0E0,0E0,0E0],"parents":[2147483647,0,0,1,1,2,2,3,3,4,4,5,5,6,6],"right_children":[2,4,6,8,10,12,14,-1,-1,-1,-1,-1,-1,-1,-1],"split_conditions":[1.3401681E1,9.123995E2,9.1295264E2,7.1767694E-1,8.641978E0,1.5507963E1,3.2E0,-3.9190155E-2,5.1508255E-2,1.1447457E-1,5.0817546E-2,-8.108306E-2,-1.3526835E-1,1.4352664E-2,-6.954588E-2],"split_indices":[2,18,23,25,2,2,9,0,0,0,0,0,0,0,0],"split_type":[0,0,0,0,0,0,0,0,0,0,0,0,0,0,0],"sum_hessian":[6.74E2,4.57E2,2.17E2,1.17E2,3.4E2,1.68E2,4.9E1,9.3E1,2.4E1,9.3E1,2.47E2,3.8E1,1.3E2,3.4E1,1.5E1],"tree_param":{"num_deleted":"0","num_feature":"27","num_nodes":"15","size_leaf_vector":"1"}},{"base_weights":[2.0981992E-3,-9.265311E0,5.288432E0,-3.196439E0,-1.239356E1,9.252073E0,2.207413E0,-4.1732695E-2,6.605114E-2,-1.3034905E-1,-2.521247E-2,1.0582155E-1,2.6305893E-3,6.600847E-2,-7.978926E-3],"categories":[],"categories_nodes":[],"categories_segments":[],"categories_sizes":[],"default_left":[0,0,0,0,0,0,0,0,0,0,0,0,0,0,0],"id":11,"left_children":[1,3,5,7,9,11,13,-1,-1,-1,-1,-1,-1,-1,-1],"loss_changes":[3.2774734E4,4.5737266E3,5.181912E3,8.3181964E2,9.8018555E2,2.2210557E3,3.187338E3,0E0,0E0,0E0,0E0,0E0,0E0,0E0,0E0],"parents":[2147483647,0,0,1,1,2,2,3,3,4,4,5,5,6,6],"right_children":[2,4,6,8,10,12,14,-1,-1,-1,-1,-1,-1,-1,-1],"split_conditions":[9.12162E2,1.3571211E1,1.0045089E1,2.5377918E1,2.5104454E1,8.163536E1,2.210324E1,-4.1732695E-2,6.605114E-2,-1.3034905E-1,-2.521247E-2,1.0582155E-1,2.6305893E-3,6.600847E-2,-7.978926E-3],"split_indices":[23,7,7,0,15,1,20,0,0,0,0,0,0,0,0],"split_type":[0,0,0,0,0,0,0,0,0,0,0,0,0,0,0],"sum_hessian":[6.67E2,2.42E2,4.25E2,8.3E1,1.59E2,1.85E2,2.4E2,7.6E1,7E0,1.49E2,1E1,1.61E2,2.4E1,9.7E1,1.43E2],"tree_param":{"num_deleted":"0","num_feature":"27","num_nodes":"15","size_leaf_vector":"1"}},{"base_weights":[-1.3937174E-1,4.1632347E0,-9.964033E0,6.1599083E0,-3.4508522E0,1.1863961E0,-1.1775585E1,9.631982E-2,3.736302E-2,5.0634965E-2,-4.4997707E-2,3.8459193E-2,-3.5151802E-2,-1.2490652E-1,-4.9241323E-2],"categories":[],"categories_nodes":[],"categories_segments":[],"categories_sizes":[],"default_left":[0,0,0,0,0,0,0,0,0,0,0,0,0,0,0],"id":12,"left_children":[1,3,5,7,9,11,13,-1,-1,-1,-1,-1,-1,-1,-1],"loss_changes":[2.78985E4,6.9993623E3,4.074086E3,3.0270498E3,8.80147E2,3.7613367E2,7.8606445E2,0E0,0E0,0E0,0E0,0E0,0E0,0E0,0E0],"parents":[2147483647,0,0,1,1,2,2,3,3,4,4,5,5,6,6],"right_children":[2,4,6,8,10,12,14,-1,-1,-1,-1,-1,-1,-1,-1],"split_conditions":[1.3571211E1,8.025284E1,4.0642858E0,9.775807E0,6.457143E0,2.3666805E1,2.4464027E1,9.631982E-2,3.736302E-2,5.0634965E-2,-4.4997707E-2,3.8459193E-2,-3.5151802E-2,-1.2490652E-1,-4.9241323E-2],"split_indices":[7,6,24,7,19,10,15,0,0,0,0,0,0,0,0],"split_type":[0,0,0,0,0,0,0,0,0,0,0,0,0,0,0],"sum_hessian":[6.58E2,4.58E2,2E2,3.63E2,9.5E1,2.8E1,1.72E2,1.48E2,2.15E2,1E1,8.5E1,1.8E1,1E1,1.55E2,1.7E1],"tree_param":{"num_deleted":"0","num_feature":"27","num_nodes":"15","size_leaf_vector":"1"}},{"base_weights":[3.0870852E-1,4.8033185E0,-9.726273E0,6.7753406E0,-2.772585E0,-1.2414487E1,-1.2985486E0,9.1286026E-2,2.0512832E-2,9.511476E-2,-4.7340874E-2,-1.3013092E-1,-3.667285E-2,1.5415397E-2,-5.4937534E-2],"categories":[],"categories_nodes":[],"categories_segments":[],"categories_sizes":[],"default_left":[0,0,0,0,0,0,0,0,0,0,0,0,0,0,0],"id":13,"left_children":[1,3,5,7,9,11,13,-1,-1,-1,-1,-1,-1,-1,-1],"loss_changes":[2.8867744E4,6.6222E3,4.469674E3,3.8833213E3,2.2617883E3,7.376953E2,5.922917E2,0E0,0E0,0E0,0E0,0E0,0E0,0E0,0E0],"parents":[2147483647,0,0,1,1,2,2,3,3,4,4,5,5,6,6],"right_children":[2,4,6,8,10,12,14,-1,-1,-1,-1,-1,-1,-1,-1],"split_conditions":[1.3496424E1,8.02158E1,2.1516098E-2,1.1337855E1,5.485308E0,2.4887987E1,7.685248E1,9.1286026E-2,2.0512832E-2,9.511476E-2,-4.7340874E-2,-1.3013092E-1,-3.667285E-2,1.5415397E-2,-5.4937534E-2],"split_indices":[2,1,26,7,2,5,1,0,0,0,0,0,0,0,0],"split_type":[0,0,0,0,0,0,0,0,0,0,0,0,0,0,0],"sum_hessian":[6.38E2,4.41E2,1.97E2,3.5E2,9.1E1,1.49E2,4.8E1,2.33E2,1.17E2,1.2E1,7.9E1,1.39E2,1E1,2.9E1,1.9E1],"tree_param":{"num_deleted":"0","num_feature":"27","num_nodes":"15","size_leaf_vector":"1"}},{"base_weights":[-2.556128E-1,-9.370719E0,4.750658E0,-4.0112457E0,-1.2626092E1,9.01276E0,1.2798193E0,-4.999141E-2,2.662022E-2,-1.2928197E-1,-1.762768E-2,1.0507152E-1,2.2226233E-2,4.2762507E-2,-4.539596E-2],"categories":[],"categories_nodes":[],"categories_segments":[],"categories_sizes":[],"default_left":[0,0,0,0,0,0,0,0,0,0,0,0,0,0,0],"id":14,"left_children":[1,3,5,7,9,11,13,-1,-1,-1,-1,-1,-1,-1,-1],"loss_changes":[2.94776E4,3.9447383E3,6.157174E3,5.9344727E2,4.4323438E2,1.8741611E3,4.04747E3,0E0,0E0,0E0,0E0,0E0,0E0,0E0,0E0],"parents":[2147483647,0,0,1,1,2,2,3,3,4,4,5,5,6,6],"right_children":[2,4,6,8,10,12,14,-1,-1,-1,-1,-1,-1,-1,-1],"split_conditions":[9.121407E2,1.4269557E1,1.0383929E1,2.4997015E1,2.506889E1,1.04E1,2E-1,-4.999141E-2,2.662022E-2,-1.2928197E-1,-1.762768E-2,1.0507152E-1,2.2226233E-2,4.2762507E-2,-4.539596E-2],"split_indices":[23,2,2,5,5,9,4,0,0,0,0,0,0,0,0],"split_type":[0,0,0,0,0,0,0,0,0,0,0,0,0,0,0],"sum_hessian":[6.44E2,2.28E2,4.16E2,8.7E1,1.41E2,1.86E2,2.3E2,7.6E1,1.1E1,1.37E2,4E0,1.52E2,3.4E1,1.52E2,7.8E1],"tree_param":{"num_deleted":"0","num_feature":"27","num_nodes":"15","size_leaf_vector":"1"}},{"base_weights":[-2.6166657E-1,-9.160231E0,4.873597E0,-2.9962928E0,-1.2242745E1,8.291132E0,7.720789E-1,-4.071841E-2,5.9410147E-2,-7.027392E-2,-1.2625895E-1,9.988047E-2,9.554857E-3,3.0073874E-2,-4.251407E-2],"categories":[],"categories_nodes":[],"categories_segments":[],"categories_sizes":[],"default_left":[0,0,0,0,0,0,0,0,0,0,0,0,0,0,0],"id":15,"left_children":[1,3,5,7,9,11,13,-1,-1,-1,-1,-1,-1,-1,-1],"loss_changes":[2.9473174E4,4.447416E3,5.726585E3,7.9319135E2,2.2500195E2,2.7663555E3,2.1126162E3,0E0,0E0,0E0,0E0,0E0,0E0,0E0,0E0],"parents":[2147483647,0,0,1,1,2,2,3,3,4,4,5,5,6,6],"right_children":[2,4,6,8,10,12,14,-1,-1,-1,-1,-1,-1,-1,-1],"split_conditions":[9.122392E2,1.2993724E1,1.0936132E1,2.5642847E1,7.214346E1,1.3400001E1,1.9000001E0,-4.071841E-2,5.9410147E-2,-7.027392E-2,-1.2625895E-1,9.988047E-2,9.554857E-3,3.0073874E-2,-4.251407E-2],"split_indices":[18,7,2,5,1,4,4,0,0,0,0,0,0,0,0],"split_type":[0,0,0,0,0,0,0,0,0,0,0,0,0,0,0],"sum_hessian":[6.43E2,2.35E2,4.08E2,7.9E1,1.56E2,2.22E2,1.86E2,7.1E1,8E0,1.2E1,1.44E2,1.8E2,4.2E1,1.29E2,5.7E1],"tree_param":{"num_deleted":"0","num_feature":"27","num_nodes":"15","size_leaf_vector":"1"}},{"base_weights":[-1.3864405E-1,-8.4357E0,5.209174E0,-2.7445254E0,-1.2161839E1,8.9005785E0,4.0794897E-1,2.3342902E-2,-5.473205E-2,-1.2668197E-1,-6.2657245E-2,1.0165699E-1,-1.8277914E-3,2.5904099E-2,-4.1201476E-2],"categories":[],"categories_nodes":[],"categories_segments":[],"categories_sizes":[],"default_left":[0,0,0,0,0,0,0,0,0,0,0,0,0,0,0],"id":16,"left_children":[1,3,5,7,9,11,13,-1,-1,-1,-1,-1,-1,-1,-1],"loss_changes":[2.8530223E4,5.3105605E3,6.926166E3,1.4124807E3,3.7442773E2,2.5414902E3,1.7005624E3,0E0,0E0,0E0,0E0,0E0,0E0,0E0,0E0],"parents":[2147483647,0,0,1,1,2,2,3,3,4,4,5,5,6,6],"right_children":[2,4,6,8,10,12,14,-1,-1,-1,-1,-1,-1,-1,-1],"split_conditions":[9.1229193E2,1.4082316E1,1.0936132E1,1.1810744E1,2.472514E1,7.925609E1,7.535861E1,2.3342902E-2,-5.473205E-2,-1.2668197E-1,-6.2657245E-2,1.0165699E-1,-1.8277914E-3,2.5904099E-2,-4.1201476E-2],"split_indices":[18,2,2,22,0,1,1,0,0,0,0,0,0,0,0],"split_type":[0,0,0,0,0,0,0,0,0,0,0,0,0,0,0],"sum_hessian":[6.41E2,2.51E2,3.9E2,1E2,1.51E2,2.2E2,1.7E2,3.5E1,6.5E1,1.38E2,1.3E1,1.93E2,2.7E1,1.15E2,5.5E1],"tree_param":{"num_deleted":"0","num_feature":"27","num_nodes":"15","size_leaf_vector":"1"}},{"base_weights":[-8.7775804E-2,-9.308082E0,4.939695E0,-3.20561E0,-1.2143176E1,7.7625985E0,2.5705072E-1,2.45298E-2,-5.068246E-2,-1.2594903E-1,-4.288475E-2,9.560841E-2,1.6805043E-2,-2.0105409E-2,5.098432E-2],"categories":[],"categories_nodes":[],"categories_segments":[],"categories_sizes":[],"default_left":[0,0,0,0,0,0,0,0,0,0,0,0,0,0,0],"id":17,"left_children":[1,3,5,7,9,11,13,-1,-1,-1,-1,-1,-1,-1,-1],"loss_changes":[3.00839E4,3.9230234E3,5.54984E3,7.923843E2,4.9950195E2,2.8494492E3,1.7557963E3,0E0,0E0,0E0,0E0,0E0,0E0,0E0,0E0],"parents":[2147483647,0,0,1,1,2,2,3,3,4,4,5,5,6,6],"right_children":[2,4,6,8,10,12,14,-1,-1,-1,-1,-1,-1,-1,-1],"split_conditions":[9.1211383E2,1.4082316E1,1.1296114E1,7.099996E0,2.4464027E1,6.2000003E0,9.1553754E2,2.45298E-2,-5.068246E-2,-1.2594903E-1,-4.288475E-2,9.560841E-2,1.6805043E-2,-2.0105409E-2,5.098432E-2],"split_indices":[23,2,7,2,15,9,18,0,0,0,0,0,0,0,0],"split_type":[0,0,0,0,0,0,0,0,0,0,0,0,0,0,0],"sum_hessian":[6.47E2,2.28E2,4.19E2,7.3E1,1.55E2,2.61E2,1.58E2,1.8E1,5.5E1,1.46E2,9E0,2.01E2,6E1,1.08E2,5E1],"tree_param":{"num_deleted":"0","num_feature":"27","num_nodes":"15","size_leaf_vector":"1"}},{"base_weights":[2.6112947E-1,-8.402291E0,4.8351293E0,-1.6366878E0,-1.1619627E1,9.081944E0,1.2081567E0,2.5616648E-2,-2.9337695E-2,-9.066158E-2,-1.3125888E-1,1.03262424E-1,1.0812328E-3,4.06602E-2,-3.4293763E-2],"categories":[],"categories_nodes":[],"categories_segments":[],"categories_sizes":[],"default_left":[0,0,0,0,0,0,0,0,0,0,0,0,0,0,0],"id":18,"left_children":[1,3,5,7,9,11,13,-1,-1,-1,-1,-1,-1,-1,-1],"loss_changes":[2.5916723E4,4.900374E3,6.581547E3,4.1049014E2,4.6946484E2,2.1986084E3,3.0887407E3,0E0,0E0,0E0,0E0,0E0,0E0,0E0,0E0],"parents":[2147483647,0,0,1,1,2,2,3,3,4,4,5,5,6,6],"right_children":[2,4,6,8,10,12,14,-1,-1,-1,-1,-1,-1,-1,-1],"split_conditions":[9.12162E2,1.2622288E1,1.0250413E1,7.65936E1,1.6724213E1,8.163536E1,2E-1,2.5616648E-2,-2.9337695E-2,-9.066158E-2,-1.3125888E-1,1.03262424E-1,1.0812328E-3,4.06602E-2,-3.4293763E-2],"split_indices":[23,2,2,1,2,1,4,0,0,0,0,0,0,0,0],"split_type":[0,0,0,0,0,0,0,0,0,0,0,0,0,0,0],"sum_hessian":[6.52E2,2.25E2,4.27E2,7.3E1,1.52E2,1.96E2,2.31E2,1.7E1,5.6E1,5.9E1,9.3E1,1.72E2,2.4E1,1.43E2,8.8E1],"tree_param":{"num_deleted":"0","num_feature":"27","num_nodes":"15","size_leaf_vector":"1"}},{"base_weights":[3.9873776E-1,5.4453793E0,-7.581718E0,-9.8940563E-1,7.622311E0,-1.102452E1,-1.0011858E0,5.989147E-2,-1.9864254E-2,1.1876144E-1,5.4572828E-2,-7.460061E-2,-1.2248913E-1,1.3699579E-2,-7.381318E-2],"categories":[],"categories_nodes":[],"categories_segments":[],"categories_sizes":[],"default_left":[0,0,0,0,0,0,0,0,0,0,0,0,0,0,0],"id":19,"left_children":[1,3,5,7,9,11,13,-1,-1,-1,-1,-1,-1,-1,-1],"loss_changes":[2.6300258E4,5.6107754E3,5.720795E3,7.21588E2,2.6888809E3,6.3309766E2,1.3413945E3,0E0,0E0,0E0,0E0,0E0,0E0,0E0,0E0],"parents":[2147483647,0,0,1,1,2,2,3,3,4,4,5,5,6,6],"right_children":[2,4,6,8,10,12,14,-1,-1,-1,-1,-1,-1,-1,-1],"split_conditions":[1.27384615E1,9.124559E2,9.1300494E2,7.0000005E-1,9.101987E0,1.568377E1,2.5E0,5.989147E-2,-1.9864254E-2,1.1876144E-1,5.4572828E-2,-7.460061E-2,-1.2248913E-1,1.3699579E-2,-7.381318E-2],"split_indices":[2,23,23,9,2,2,4,0,0,0,0,0,0,0,0],"split_type":[0,0,0,0,0,0,0,0,0,0,0,0,0,0,0],"sum_hessian":[6.51E2,3.99E2,2.52E2,1.01E2,2.98E2,1.65E2,8.7E1,1.2E1,8.9E1,9.9E1,1.99E2,4.4E1,1.21E2,6.4E1,2.3E1],"tree_param":{"num_deleted":"0","num_feature":"27","num_nodes":"15","size_leaf_vector":"1"}},{"base_weights":[-8.6552306E-4,-8.466199E0,4.8393154E0,-3.1710622E0,-1.1671374E1,8.122797E0,4.5283812E-1,-4.825144E-2,3.1075925E-2,-2.1670632E-2,-1.211834E-1,9.11418E-2,-3.3868242E-2,-5.8903903E-2,2.268359E-2],"categories":[],"categories_nodes":[],"categories_segments":[],"categories_sizes":[],"default_left":[0,0,0,0,0,0,0,0,0,0,0,0,0,0,0],"id":20,"left_children":[1,3,5,7,9,11,13,-1,-1,-1,-1,-1,-1,-1,-1],"loss_changes":[2.7370457E4,4.0871484E3,6.1175615E3,9.808376E2,6.152012E2,2.8036045E3,2.1208381E3,0E0,0E0,0E0,0E0,0E0,0E0,0E0,0E0],"parents":[2147483647,0,0,1,1,2,2,3,3,4,4,5,5,6,6],"right_children":[2,4,6,8,10,12,14,-1,-1,-1,-1,-1,-1,-1,-1],"split_conditions":[9.121407E2,1.4082316E1,1.1223956E1,2.4539028E1,7.084433E1,8.366268E1,9.1337714E2,-4.825144E-2,3.1075925E-2,-2.1670632E-2,-1.211834E-1,9.11418E-2,-3.3868242E-2,-5.8903903E-2,2.268359E-2],"split_indices":[23,7,7,5,1,1,23,0,0,0,0,0,0,0,0],"split_type":[0,0,0,0,0,0,0,0,0,0,0,0,0,0,0],"sum_hessian":[6.66E2,2.42E2,4.24E2,9.2E1,1.5E2,2.42E2,1.82E2,7.3E1,1.9E1,7E0,1.43E2,2.23E2,1.9E1,4E1,1.42E2],"tree_param":{"num_deleted":"0","num_feature":"27","num_nodes":"15","size_leaf_vector":"1"}},{"base_weights":[-1.6367202E-1,4.3690143E0,-8.602508E0,6.27719E0,-2.4515398E0,-1.0945871E1,-1.2677367E0,1.15966715E-1,4.2047024E-2,3.801463E-2,-4.4198137E-2,-1.1462979E-1,-2.7080268E-2,2.1102803E-2,-6.281939E-2],"categories":[],"categories_nodes":[],"categories_segments":[],"categories_sizes":[],"default_left":[0,0,0,0,0,0,0,0,0,0,0,0,0,0,0],"id":21,"left_children":[1,3,5,7,9,11,13,-1,-1,-1,-1,-1,-1,-1,-1],"loss_changes":[2.6162738E4,5.8069824E3,4.0940664E3,3.7877861E3,1.2229485E3,7.3999023E2,1.01260236E3,0E0,0E0,0E0,0E0,0E0,0E0,0E0,0E0],"parents":[2147483647,0,0,1,1,2,2,3,3,4,4,5,5,6,6],"right_children":[2,4,6,8,10,12,14,-1,-1,-1,-1,-1,-1,-1,-1],"split_conditions":[1.32626915E1,7.949478E1,9.1279504E2,2.2059986E1,2.210324E1,2.506889E1,2E0,1.15966715E-1,4.2047024E-2,3.801463E-2,-4.4198137E-2,-1.1462979E-1,-2.7080268E-2,2.1102803E-2,-6.281939E-2],"split_indices":[2,1,18,20,20,0,9,0,0,0,0,0,0,0,0],"split_type":[0,0,0,0,0,0,0,0,0,0,0,0,0,0,0],"sum_hessian":[6.82E2,4.44E2,2.38E2,3.47E2,9.7E1,1.8E2,5.8E1,9.6E1,2.51E2,2.3E1,7.4E1,1.69E2,1.1E1,3.5E1,2.3E1],"tree_param":{"num_deleted":"0","num_feature":"27","num_nodes":"15","size_leaf_vector":"1"}},{"base_weights":[7.7298045E-2,4.303904E0,-8.123064E0,6.411646E0,-1.8640102E0,2.4142044E0,-1.0665804E1,8.534339E-2,3.3415705E-2,1.6803409E-1,-2.5573976E-2,5.1815424E-2,-4.370541E-2,-7.565187E-2,-1.2023876E-1],"categories":[],"categories_nodes":[],"categories_segments":[],"categories_sizes":[],"default_left":[0,0,0,0,0,0,0,0,0,0,0,0,0,0,0],"id":22,"left_children":[1,3,5,7,9,11,13,-1,-1,-1,-1,-1,-1,-1,-1],"loss_changes":[2.211319E4,5.485108E3,5.8399463E3,2.0177646E3,1.4408983E3,8.300007E2,6.459375E2,0E0,0E0,0E0,0E0,0E0,0E0,0E0,0E0],"parents":[2147483647,0,0,1,1,2,2,3,3,4,4,5,5,6,6],"right_children":[2,4,6,8,10,12,14,-1,-1,-1,-1,-1,-1,-1,-1],"split_conditions":[1.3212833E1,7.949478E1,1E-1,1.1164772E1,6.553838E0,2.3936598E1,1.5836975E1,8.534339E-2,3.3415705E-2,1.6803409E-1,-2.5573976E-2,5.1815424E-2,-4.370541E-2,-7.565187E-2,-1.2023876E-1],"split_indices":[7,1,4,22,22,10,7,0,0,0,0,0,0,0,0],"split_type":[0,0,0,0,0,0,0,0,0,0,0,0,0,0,0],"sum_hessian":[6.36E2,4.2E2,2.16E2,3.13E2,1.07E2,4.2E1,1.74E2,1.84E2,1.29E2,3E0,1.04E2,3E1,1.2E1,5.5E1,1.19E2],"tree_param":{"num_deleted":"0","num_feature":"27","num_nodes":"15","size_leaf_vector":"1"}},{"base_weights":[-6.52927E-1,-8.881583E0,3.5088835E0,-3.790885E0,-1.1237034E1,5.8863306E0,-3.6282218E-1,-1.4609551E-2,-6.420482E-2,-1.1708673E-1,-4.041304E-2,7.185033E-2,-1.5512899E-2,2.9545402E-2,-5.076777E-2],"categories":[],"categories_nodes":[],"categories_segments":[],"categories_sizes":[],"default_left":[0,0,0,0,0,0,0,0,0,0,0,0,0,0,0],"id":23,"left_children":[1,3,5,7,9,11,13,-1,-1,-1,-1,-1,-1,-1,-1],"loss_changes":[2.304455E4,2.6673418E3,4.1166704E3,4.3787476E2,4.7532617E2,2.6867598E3,2.6890798E3,0E0,0E0,0E0,0E0,0E0,0E0,0E0,0E0],"parents":[2147483647,0,0,1,1,2,2,3,3,4,4,5,5,6,6],"right_children":[2,4,6,8,10,12,14,-1,-1,-1,-1,-1,-1,-1,-1],"split_conditions":[9.117886E2,1.36180525E1,1.1337855E1,1.2928446E1,2.4464027E1,8.163536E1,1E-1,-1.4609551E-2,-6.420482E-2,-1.1708673E-1,-4.041304E-2,7.185033E-2,-1.5512899E-2,2.9545402E-2,-5.076777E-2],"split_indices":[23,7,7,22,15,1,4,0,0,0,0,0,0,0,0],"split_type":[0,0,0,0,0,0,0,0,0,0,0,0,0,0,0],"sum_hessian":[6.71E2,2.25E2,4.46E2,7.2E1,1.53E2,2.76E2,1.7E2,3.9E1,3.3E1,1.43E2,1E1,2.35E2,4.1E1,1E2,7E1],"tree_param":{"num_deleted":"0","num_feature":"27","num_nodes":"15","size_leaf_vector":"1"}},{"base_weights":[2.1885918E-1,-7.858621E0,5.0565915E0,-2.0222185E0,-1.0895566E1,8.812054E0,1.8239588E0,2.4389237E-2,-4.7817152E-2,-1.13598585E-1,-3.7848435E-2,1.0554682E-1,1.1914564E-2,3.633487E-2,-4.8244037E-2],"categories":[],"categories_nodes":[],"categories_segments":[],"categories_sizes":[],"default_left":[0,0,0,0,0,0,0,0,0,0,0,0,0,0,0],"id":24,"left_children":[1,3,5,7,9,11,13,-1,-1,-1,-1,-1,-1,-1,-1],"loss_changes":[2.4618975E4,4.1610273E3,4.7671006E3,1.0211239E3,4.6873047E2,2.4043594E3,2.5800042E3,0E0,0E0,0E0,0E0,0E0,0E0,0E0,0E0],"parents":[2147483647,0,0,1,1,2,2,3,3,4,4,5,5,6,6],"right_children":[2,4,6,8,10,12,14,-1,-1,-1,-1,-1,-1,-1,-1],"split_conditions":[9.122392E2,1.2372422E1,1.0426058E1,1.1317187E1,2.4632778E1,1.3400001E1,5.3E0,2.4389237E-2,-4.7817152E-2,-1.13598585E-1,-3.7848435E-2,1.0554682E-1,1.1914564E-2,3.633487E-2,-4.8244037E-2],"split_indices":[18,2,2,22,5,4,4,0,0,0,0,0,0,0,0],"split_type":[0,0,0,0,0,0,0,0,0,0,0,0,0,0,0],"sum_hessian":[6.28E2,2.35E2,3.93E2,8.1E1,1.54E2,1.81E2,2.12E2,3.1E1,5E1,1.44E2,1E1,1.47E2,3.4E1,1.67E2,4.5E1],"tree_param":{"num_deleted":"0","num_feature":"27","num_nodes":"15","size_leaf_vector":"1"}},{"base_weights":[-5.9047937E-2,4.197678E0,-9.452911E0,5.4965568E0,-3.8271608E0,-2.0657845E0,-1.0772302E1,1.01997085E-1,3.3364896E-2,2.7086746E-2,-5.9260402E-2,-5.9155948E-3,-6.414515E-2,-1.1175899E-1,-2.2209298E-2],"categories":[],"categories_nodes":[],"categories_segments":[],"categories_sizes":[],"default_left":[0,0,0,0,0,0,0,0,0,0,0,0,0,0,0],"id":25,"left_children":[1,3,5,7,9,11,13,-1,-1,-1,-1,-1,-1,-1,-1],"loss_changes":[2.60313E4,4.690672E3,1.9562871E3,3.8873906E3,8.802813E2,2.0135765E2,5.688047E2,0E0,0E0,0E0,0E0,0E0,0E0,0E0,0E0],"parents":[2147483647,0,0,1,1,2,2,3,3,4,4,5,5,6,6],"right_children":[2,4,6,8,10,12,14,-1,-1,-1,-1,-1,-1,-1,-1],"split_conditions":[1.3815572E1,8.196844E1,3.7642858E0,2.2148998E1,6.482435E0,4.3E0,2.506889E1,1.01997085E-1,3.3364896E-2,2.7086746E-2,-5.9260402E-2,-5.9155948E-3,-6.414515E-2,-1.1175899E-1,-2.2209298E-2],"split_indices":[2,1,24,15,2,4,0,0,0,0,0,0,0,0,0],"split_type":[0,0,0,0,0,0,0,0,0,0,0,0,0,0,0],"sum_hessian":[6.49E2,4.47E2,2.02E2,3.85E2,6.2E1,3.1E1,1.71E2,1.2E2,2.65E2,1.5E1,4.7E1,2.4E1,7E0,1.63E2,8E0],"tree_param":{"num_deleted":"0","num_feature":"27","num_nodes":"15","size_leaf_vector":"1"}},{"base_weights":[3.2941303E-1,-7.1606474E0,5.4988527E0,-2.5988393E0,-1.0970565E1,8.822351E0,6.487919E-1,-4.8740286E-2,2.4989171E-2,-1.1534146E-1,-3.856956E-2,9.916144E-2,-3.6839545E-3,3.2148123E-2,-5.557231E-2],"categories":[],"categories_nodes":[],"categories_segments":[],"categories_sizes":[],"default_left":[0,0,0,0,0,0,0,0,0,0,0,0,0,0,0],"id":26,"left_children":[1,3,5,7,9,11,13,-1,-1,-1,-1,-1,-1,-1,-1],"loss_changes":[2.493596E4,4.54246E3,6.1356807E3,1.4155815E3,5.2881445E2,2.27558E3,2.502131E3,0E0,0E0,0E0,0E0,0E0,0E0,0E0,0E0],"parents":[2147483647,0,0,1,1,2,2,3,3,4,4,5,5,6,6],"right_children":[2,4,6,8,10,12,14,-1,-1,-1,-1,-1,-1,-1,-1],"split_conditions":[9.124082E2,1.4269557E1,1.1438322E1,3.7770796E-1,2.4464027E1,1.35E1,2E0,-4.8740286E-2,2.4989171E-2,-1.1534146E-1,-3.856956E-2,9.916144E-2,-3.6839545E-3,3.2148123E-2,-5.557231E-2],"split_indices":[18,2,2,25,15,9,9,0,0,0,0,0,0,0,0],"split_type":[0,0,0,0,0,0,0,0,0,0,0,0,0,0,0],"sum_hessian":[6.42E2,2.62E2,3.8E2,1.2E2,1.42E2,2.25E2,1.55E2,8.3E1,3.7E1,1.31E2,1.1E1,2.01E2,2.4E1,1.1E2,4.5E1],"tree_param":{"num_deleted":"0","num_feature":"27","num_nodes":"15","size_leaf_vector":"1"}},{"base_weights":[-2.6244068E-1,-7.263618E0,4.8951077E0,-1.1167659E0,-1.0331227E1,8.1666355E0,1.2080743E0,-2.3148341E-2,5.093131E-2,-1.08564764E-1,-2.8775983E-2,9.511277E-2,-7.6915654E-3,3.004524E-2,-3.9818864E-2],"categories":[],"categories_nodes":[],"categories_segments":[],"categories_sizes":[],"default_left":[0,0,0,0,0,0,0,0,0,0,0,0,0,0,0],"id":27,"left_children":[1,3,5,7,9,11,13,-1,-1,-1,-1,-1,-1,-1,-1],"loss_changes":[2.4517398E4,5.4190312E3,4.706466E3,7.334581E2,7.204414E2,2.4945117E3,1.7368118E3,0E0,0E0,0E0,0E0,0E0,0E0,0E0,0E0],"parents":[2147483647,0,0,1,1,2,2,3,3,4,4,5,5,6,6],"right_children":[2,4,6,8,10,12,14,-1,-1,-1,-1,-1,-1,-1,-1],"split_conditions":[9.124285E2,1.2265827E1,1.0936132E1,2.5829306E1,2.506889E1,1.92E1,2.3E0,-2.3148341E-2,5.093131E-2,-1.08564764E-1,-2.8775983E-2,9.511277E-2,-7.6915654E-3,3.004524E-2,-3.9818864E-2],"split_indices":[18,2,2,0,0,9,9,0,0,0,0,0,0,0,0],"split_type":[0,0,0,0,0,0,0,0,0,0,0,0,0,0,0],"sum_hessian":[6.77E2,2.87E2,3.9E2,9.6E1,1.91E2,2.06E2,1.84E2,8.1E1,1.5E1,1.78E2,1.3E1,1.79E2,2.7E1,1.37E2,4.7E1],"tree_param":{"num_deleted":"0","num_feature":"27","num_nodes":"15","size_leaf_vector":"1"}},{"base_weights":[-1.4541237E-1,3.9777174E0,-7.732746E0,5.95747E0,-1.5048304E0,2.2778018E0,-9.7060585E0,9.9380605E-2,3.4143824E-2,-3.0583302E-2,5.742518E-2,1.0632761E-1,-1.4321199E-3,-1.0339002E-1,-1.25267785E-2],"categories":[],"categories_nodes":[],"categories_segments":[],"categories_sizes":[],"default_left":[0,0,0,0,0,0,0,0,0,0,0,0,0,0,0],"id":28,"left_children":[1,3,5,7,9,11,13,-1,-1,-1,-1,-1,-1,-1,-1],"loss_changes":[2.114716E4,4.7630557E3,4.723547E3,3.225671E3,1.3348367E3,8.1062164E2,1.0517988E3,0E0,0E0,0E0,0E0,0E0,0E0,0E0,0E0],"parents":[2147483647,0,0,1,1,2,2,3,3,4,4,5,5,6,6],"right_children":[2,4,6,8,10,12,14,-1,-1,-1,-1,-1,-1,-1,-1],"split_conditions":[1.3183074E1,7E0,1.6714286E0,2.21801E1,2.5707829E1,1.1010371E1,9.1432153E2,9.9380605E-2,3.4143824E-2,-3.0583302E-2,5.742518E-2,1.0632761E-1,-1.4321199E-3,-1.0339002E-1,-1.25267785E-2],"split_indices":[2,4,19,20,20,22,8,0,0,0,0,0,0,0,0],"split_type":[0,0,0,0,0,0,0,0,0,0,0,0,0,0,0],"sum_hessian":[6.74E2,4.37E2,2.37E2,3.21E2,1.16E2,3.9E1,1.98E2,1.24E2,1.97E2,9.6E1,2E1,8E0,3.1E1,1.84E2,1.4E1],"tree_param":{"num_deleted":"0","num_feature":"27","num_nodes":"15","size_leaf_vector":"1"}},{"base_weights":[-2.3258209E-1,-7.6018143E0,4.479172E0,-5.2028637E-2,-9.657191E0,8.481291E0,1.2931446E0,3.1120457E-2,-2.1909017E-2,-1.0184094E-1,4.1758395E-3,9.487576E-2,5.063149E-3,8.264642E-2,4.9690027E-3],"categories":[],"categories_nodes":[],"categories_segments":[],"categories_sizes":[],"default_left":[0,0,0,0,0,0,0,0,0,0,0,0,0,0,0],"id":29,"left_children":[1,3,5,7,9,11,13,-1,-1,-1,-1,-1,-1,-1,-1],"loss_changes":[2.2881135E4,3.987537E3,5.114878E3,3.8580124E2,1.0765547E3,1.423667E3,1.2448716E3,0E0,0E0,0E0,0E0,0E0,0E0,0E0,0E0],"parents":[2147483647,0,0,1,1,2,2,3,3,4,4,5,5,6,6],"right_children":[2,4,6,8,10,12,14,-1,-1,-1,-1,-1,-1,-1,-1],"split_conditions":[9.122392E2,1.0167836E1,1.0250413E1,7.1788373E0,2.5169584E1,8.159032E1,2.021646E1,3.1120457E-2,-2.1909017E-2,-1.0184094E-1,4.1758395E-3,9.487576E-2,5.063149E-3,8.264642E-2,4.9690027E-3],"split_indices":[18,2,2,7,0,6,0,0,0,0,0,0,0,0,0],"split_type":[0,0,0,0,0,0,0,0,0,0,0,0,0,0,0],"sum_hessian":[6.57E2,2.56E2,4.01E2,5.5E1,2.01E2,1.77E2,2.24E2,2.2E1,3.3E1,1.91E2,1E1,1.57E2,2E1,2.2E1,2.02E2],"tree_param":{"num_deleted":"0","num_feature":"27","num_nodes":"15","size_leaf_vector":"1"}},{"base_weights":[-1.2559185E-2,4.257319E0,-7.8909955E0,6.4378705E0,-1.3888627E0,-1.0553012E1,1.6211477E-3,8.7587975E-2,2.0220555E-2,-3.479141E-2,2.4266135E-2,-8.543271E-2,-1.18543E-1,5.003368E-2,-1.554514E-2],"categories":[],"categories_nodes":[],"categories_segments":[],"categories_sizes":[],"default_left":[0,0,0,0,0,0,0,0,0,0,0,0,0,0,0],"id":30,"left_children":[1,3,5,7,9,11,13,-1,-1,-1,-1,-1,-1,-1,-1],"loss_changes":[2.1630451E4,5.1429565E3,4.74834E3,3.0671738E3,9.415651E2,3.4070312E2,4.592147E2,0E0,0E0,0E0,0E0,0E0,0E0,0E0,0E0],"parents":[2147483647,0,0,1,1,2,2,3,3,4,4,5,5,6,6],"right_children":[2,4,6,8,10,12,14,-1,-1,-1,-1,-1,-1,-1,-1],"split_conditions":[1.3212833E1,7E0,9.133023E2,1.1072873E1,-3.536761E-1,1.7059624E1,1.2108694E1,8.7587975E-2,2.0220555E-2,-3.479141E-2,2.4266135E-2,-8.543271E-2,-1.18543E-1,5.003368E-2,-1.554514E-2],"split_indices":[2,9,13,2,25,2,17,0,0,0,0,0,0,0,0],"split_type":[0,0,0,0,0,0,0,0,0,0,0,0,0,0,0],"sum_hessian":[6.41E2,4.16E2,2.25E2,3E2,1.16E2,1.68E2,5.7E1,1.96E2,1.04E2,7.5E1,4.1E1,6.9E1,9.9E1,1.3E1,4.4E1],"tree_param":{"num_deleted":"0","num_feature":"27","num_nodes":"15","size_leaf_vector":"1"}},{"base_weights":[-1.3101473E-1,-6.970305E0,4.515859E0,-2.8414924E0,-1.0477266E1,6.968474E0,3.3859342E-2,-5.072586E-2,2.1512134E-2,-8.590975E-2,-1.1722344E-1,8.100944E-2,-1.1428957E-3,2.7178489E-2,-4.16354E-2],"categories":[],"categories_nodes":[],"categories_segments":[],"categories_sizes":[],"default_left":[0,0,0,0,0,0,0,0,0,0,0,0,0,0,0],"id":31,"left_children":[1,3,5,7,9,11,13,-1,-1,-1,-1,-1,-1,-1,-1],"loss_changes":[2.0975367E4,3.8362783E3,4.3198623E3,1.3921721E3,2.3748926E2,2.0382656E3,1.5885247E3,0E0,0E0,0E0,0E0,0E0,0E0,0E0,0E0],"parents":[2147483647,0,0,1,1,2,2,3,3,4,4,5,5,6,6],"right_children":[2,4,6,8,10,12,14,-1,-1,-1,-1,-1,-1,-1,-1],"split_conditions":[9.124082E2,1.4082316E1,1.1764724E1,4.0148798E-1,7.9E0,2.45E1,5E-1,-5.072586E-2,2.1512134E-2,-8.590975E-2,-1.1722344E-1,8.100944E-2,-1.1428957E-3,2.7178489E-2,-4.16354E-2],"split_indices":[18,2,2,25,4,4,4,0,0,0,0,0,0,0,0],"split_type":[0,0,0,0,0,0,0,0,0,0,0,0,0,0,0],"sum_hessian":[6.58E2,2.66E2,3.92E2,1.23E2,1.43E2,2.53E2,1.39E2,8.5E1,3.8E1,6E1,8.3E1,2.18E2,3.5E1,8.5E1,5.4E1],"tree_param":{"num_deleted":"0","num_feature":"27","num_nodes":"15","size_leaf_vector":"1"}},{"base_weights":[-1.2572455E-1,-7.0704412E0,4.6160383E0,-1.8398525E0,-9.96233E0,7.3139343E0,8.22791E-2,-3.6553454E-2,1.7918715E-2,-1.0356382E-1,-1.6311133E-2,8.437513E-2,9.122117E-3,2.397937E-2,-4.7919653E-2],"categories":[],"categories_nodes":[],"categories_segments":[],"categories_sizes":[],"default_left":[0,0,0,0,0,0,0,0,0,0,0,0,0,0,0],"id":32,"left_children":[1,3,5,7,9,11,13,-1,-1,-1,-1,-1,-1,-1,-1],"loss_changes":[2.183243E4,4.0506406E3,4.8186523E3,6.4610675E2,5.510547E2,1.7689346E3,1.6819792E3,0E0,0E0,0E0,0E0,0E0,0E0,0E0,0E0],"parents":[2147483647,0,0,1,1,2,2,3,3,4,4,5,5,6,6],"right_children":[2,4,6,8,10,12,14,-1,-1,-1,-1,-1,-1,-1,-1],"split_conditions":[9.124285E2,1.2372422E1,1.167342E1,4.171936E-1,2.506889E1,1.3400001E1,1.7E0,-3.6553454E-2,1.7918715E-2,-1.0356382E-1,-1.6311133E-2,8.437513E-2,9.122117E-3,2.397937E-2,-4.7919653E-2],"split_indices":[18,2,2,25,5,4,4,0,0,0,0,0,0,0,0],"split_type":[0,0,0,0,0,0,0,0,0,0,0,0,0,0,0],"sum_hessian":[6.61E2,2.68E2,3.93E2,9.6E1,1.72E2,2.46E2,1.47E2,6.4E1,3.2E1,1.64E2,8E0,2.09E2,3.7E1,1E2,4.7E1],"tree_param":{"num_deleted":"0","num_feature":"27","num_nodes":"15","size_leaf_vector":"1"}},{"base_weights":[2.325728E-1,4.210955E0,-7.652915E0,6.297976E0,-3.414372E-1,1.9950558E0,-9.488991E0,1.11573905E-1,4.562245E-2,1.0215678E-2,-6.543083E-2,5.232703E-2,-4.135605E-2,-9.813273E-2,4.1478336E-2],"categories":[],"categories_nodes":[],"categories_segments":[],"categories_sizes":[],"default_left":[0,0,0,0,0,0,0,0,0,0,0,0,0,0,0],"id":33,"left_children":[1,3,5,7,9,11,13,-1,-1,-1,-1,-1,-1,-1,-1],"loss_changes":[2.0580549E4,4.1445586E3,3.9161016E3,2.4710537E3,1.1731809E3,7.362014E2,8.588086E2,0E0,0E0,0E0,0E0,0E0,0E0,0E0,0E0],"parents":[2147483647,0,0,1,1,2,2,3,3,4,4,5,5,6,6],"right_children":[2,4,6,8,10,12,14,-1,-1,-1,-1,-1,-1,-1,-1],"split_conditions":[1.3183074E1,7.592203E1,1.6714286E0,2.2059986E1,1.2993619E1,2.3405348E1,9.1519403E2,1.11573905E-1,4.562245E-2,1.0215678E-2,-6.543083E-2,5.232703E-2,-4.135605E-2,-9.813273E-2,4.1478336E-2],"split_indices":[2,1,19,20,22,10,18,0,0,0,0,0,0,0,0],"split_type":[0,0,0,0,0,0,0,0,0,0,0,0,0,0,0],"sum_hessian":[6.54E2,4.35E2,2.19E2,2.98E2,1.37E2,3.5E1,1.84E2,7.7E1,2.21E2,1.13E2,2.4E1,2.3E1,1.2E1,1.8E2,4E0],"tree_param":{"num_deleted":"0","num_feature":"27","num_nodes":"15","size_leaf_vector":"1"}},{"base_weights":[4.284211E-1,-7.3361254E0,3.9197161E0,-2.2659478E0,-1.0368053E1,5.933949E0,6.7851776E-1,-3.8241506E-2,2.5279207E-2,-1.0793883E-1,-2.8975176E-2,7.3331855E-2,2.0120116E-3,-5.0918255E-2,2.0635016E-2],"categories":[],"categories_nodes":[],"categories_segments":[],"categories_sizes":[],"default_left":[0,0,0,0,0,0,0,0,0,0,0,0,0,0,0],"id":34,"left_children":[1,3,5,7,9,11,13,-1,-1,-1,-1,-1,-1,-1,-1],"loss_changes":[1.7215434E4,3.004872E3,2.8554688E3,5.699036E2,3.6000977E2,2.1643223E3,1.3611267E3,0E0,0E0,0E0,0E0,0E0,0E0,0E0,0E0],"parents":[2147483647,0,0,1,1,2,2,3,3,4,4,5,5,6,6],"right_children":[2,4,6,8,10,12,14,-1,-1,-1,-1,-1,-1,-1,-1],"split_conditions":[9.1199677E2,1.4269557E1,1.1337855E1,2.4208124E1,2.4208124E1,7.923312E1,9.132565E2,-3.8241506E-2,2.5279207E-2,-1.0793883E-1,-2.8975176E-2,7.3331855E-2,2.0120116E-3,-5.0918255E-2,2.0635016E-2],"split_indices":[23,7,7,5,5,6,23,0,0,0,0,0,0,0,0],"split_type":[0,0,0,0,0,0,0,0,0,0,0,0,0,0,0],"sum_hessian":[6.33E2,1.96E2,4.37E2,7.4E1,1.22E2,2.69E2,1.68E2,5.6E1,1.8E1,1.15E2,7E0,2.16E2,5.3E1,3.2E1,1.36E2],"tree_param":{"num_deleted":"0","num_feature":"27","num_nodes":"15","size_leaf_vector":"1"}},{"base_weights":[-2.8778517E-1,-7.9994583E0,3.114554E0,-3.4046123E0,-1.0339418E1,4.833438E0,-2.1282191E0,-7.8272605E-3,-5.4170057E-2,-2.9352369E-2,-1.0599614E-1,1.0247955E-1,3.0981116E-2,2.0806389E-2,-5.580426E-2],"categories":[],"categories_nodes":[],"categories_segments":[],"categories_sizes":[],"default_left":[0,0,0,0,0,0,0,0,0,0,0,0,0,0,0],"id":35,"left_children":[1,3,5,7,9,11,13,-1,-1,-1,-1,-1,-1,-1,-1],"loss_changes":[1.7656668E4,2.1796602E3,4.2187593E3,3.7037494E2,2.3089648E2,3.275626E3,1.6970734E3,0E0,0E0,0E0,0E0,0E0,0E0,0E0,0E0],"parents":[2147483647,0,0,1,1,2,2,3,3,4,4,5,5,6,6],"right_children":[2,4,6,8,10,12,14,-1,-1,-1,-1,-1,-1,-1,-1],"split_conditions":[9.117533E2,1.4269557E1,6.8E0,1.2753714E1,7.084433E1,9.059075E0,9.5804E0,-7.8272605E-3,-5.4170057E-2,-2.9352369E-2,-1.0599614E-1,1.0247955E-1,3.0981116E-2,2.0806389E-2,-5.580426E-2],"split_indices":[23,2,4,22,6,2,17,0,0,0,0,0,0,0,0],"split_type":[0,0,0,0,0,0,0,0,0,0,0,0,0,0,0],"sum_hessian":[6.71E2,2.05E2,4.66E2,7E1,1.35E2,3.51E2,1.15E2,3.1E1,3.9E1,5E0,1.3E2,8.4E1,2.67E2,5.2E1,6.3E1],"tree_param":{"num_deleted":"0","num_feature":"27","num_nodes":"15","size_leaf_vector":"1"}},{"base_weights":[-2.891123E-1,-7.2369676E0,3.829468E0,-2.23724E0,-9.455672E0,6.125036E0,-2.7569252E-1,-4.2377062E-2,1.7727992E-2,-9.9475525E-2,3.3950869E-3,7.780484E-2,2.6924002E-3,6.0184665E-2,-2.2784714E-2],"categories":[],"categories_nodes":[],"categories_segments":[],"categories_sizes":[],"default_left":[0,0,0,0,0,0,0,0,0,0,0,0,0,0,0],"id":36,"left_children":[1,3,5,7,9,11,13,-1,-1,-1,-1,-1,-1,-1,-1],"loss_changes":[1.8684889E4,2.6744248E3,3.865395E3,6.1718066E2,8.128115E2,2.547419E3,1.8793727E3,0E0,0E0,0E0,0E0,0E0,0E0,0E0,0E0],"parents":[2147483647,0,0,1,1,2,2,3,3,4,4,5,5,6,6],"right_children":[2,4,6,8,10,12,14,-1,-1,-1,-1,-1,-1,-1,-1],"split_conditions":[9.121445E2,1.2265827E1,1.1705655E1,4.327756E-1,2.506889E1,6.2000003E0,2.13675E1,-4.2377062E-2,1.7727992E-2,-9.9475525E-2,3.3950869E-3,7.780484E-2,2.6924002E-3,6.0184665E-2,-2.2784714E-2],"split_indices":[18,7,7,25,0,4,5,0,0,0,0,0,0,0,0],"split_type":[0,0,0,0,0,0,0,0,0,0,0,0,0,0,0],"sum_hessian":[6.51E2,2.42E2,4.09E2,7.5E1,1.67E2,2.62E2,1.47E2,5E1,2.5E1,1.59E2,8E0,2.04E2,5.8E1,3.5E1,1.12E2],"tree_param":{"num_deleted":"0","num_feature":"27","num_nodes":"15","size_leaf_vector":"1"}},{"base_weights":[-1.7134942E-1,-7.1734204E0,3.891577E0,-2.3116426E0,-1.0269547E1,8.564102E0,1.9756426E0,2.3674993E-2,-4.0584765E-2,-1.06487684E-1,-5.0211046E-2,1.111817E-1,2.3271315E-2,7.3354565E-2,1.1135492E-4],"categories":[],"categories_nodes":[],"categories_segments":[],"categories_sizes":[],"default_left":[0,0,0,0,0,0,0,0,0,0,0,0,0,0,0],"id":37,"left_children":[1,3,5,7,9,11,13,-1,-1,-1,-1,-1,-1,-1,-1],"loss_changes":[1.9060229E4,3.6792197E3,3.7788354E3,8.024556E2,2.450791E2,1.9334717E3,3.179795E3,0E0,0E0,0E0,0E0,0E0,0E0,0E0,0E0],"parents":[2147483647,0,0,1,1,2,2,3,3,4,4,5,5,6,6],"right_children":[2,4,6,8,10,12,14,-1,-1,-1,-1,-1,-1,-1,-1],"split_conditions":[9.122392E2,1.4082316E1,9.101987E0,8.725833E0,2.4369238E1,1.7457144E1,2.1476875E1,2.3674993E-2,-4.0584765E-2,-1.06487684E-1,-5.0211046E-2,1.111817E-1,2.3271315E-2,7.3354565E-2,1.1135492E-4],"split_indices":[18,2,2,17,0,19,0,0,0,0,0,0,0,0,0],"split_type":[0,0,0,0,0,0,0,0,0,0,0,0,0,0,0],"sum_hessian":[6.68E2,2.45E2,4.23E2,9.6E1,1.49E2,1.22E2,3.01E2,2.6E1,7E1,1.38E2,1.1E1,8.6E1,3.6E1,8E1,2.21E2],"tree_param":{"num_deleted":"0","num_feature":"27","num_nodes":"15","size_leaf_vector":"1"}},{"base_weights":[-4.908261E-2,-6.9714713E0,4.269129E0,-2.4505458E0,-1.0078358E1,8.098781E0,1.545411E0,-4.1470274E-2,2.4234759E-2,-1.0455579E-1,-4.806136E-2,1.352719E-1,6.800153E-2,3.1180289E-2,-6.2403016E-2],"categories":[],"categories_nodes":[],"categories_segments":[],"categories_sizes":[],"default_left":[0,0,0,0,0,0,0,0,0,0,0,0,0,0,0],"id":38,"left_children":[1,3,5,7,9,11,13,-1,-1,-1,-1,-1,-1,-1,-1],"loss_changes":[1.9997844E4,3.585125E3,4.285012E3,8.8653125E2,2.520459E2,1.1134746E3,2.9824937E3,0E0,0E0,0E0,0E0,0E0,0E0,0E0,0E0],"parents":[2147483647,0,0,1,1,2,2,3,3,4,4,5,5,6,6],"right_children":[2,4,6,8,10,12,14,-1,-1,-1,-1,-1,-1,-1,-1],"split_conditions":[9.122392E2,1.4269557E1,1.0018826E1,4.327756E-1,2.4239723E1,2.1533821E1,7.972894E1,-4.1470274E-2,2.4234759E-2,-1.0455579E-1,-4.806136E-2,1.352719E-1,6.800153E-2,3.1180289E-2,-6.2403016E-2],"split_indices":[18,2,2,25,0,0,1,0,0,0,0,0,0,0,0],"split_type":[0,0,0,0,0,0,0,0,0,0,0,0,0,0,0],"sum_hessian":[6.67E2,2.56E2,4.11E2,1.05E2,1.51E2,1.7E2,2.41E2,7.8E1,2.7E1,1.4E2,1.1E1,3.1E1,1.39E2,2.01E2,4E1],"tree_param":{"num_deleted":"0","num_feature":"27","num_nodes":"15","size_leaf_vector":"1"}},{"base_weights":[3.2208672E-1,-7.1568356E0,4.5186195E0,-1.4470075E0,-9.288977E0,8.938964E0,2.2657301E0,2.7974328E-2,-3.2888066E-2,-6.103002E-2,-1.030011E-1,1.0900917E-1,2.9633066E-2,6.536012E-2,-5.8573997E-4],"categories":[],"categories_nodes":[],"categories_segments":[],"categories_sizes":[],"default_left":[0,0,0,0,0,0,0,0,0,0,0,0,0,0,0],"id":39,"left_children":[1,3,5,7,9,11,13,-1,-1,-1,-1,-1,-1,-1,-1],"loss_changes":[1.9208904E4,2.664874E3,3.883497E3,4.8606207E2,4.525703E2,1.5152598E3,2.5909214E3,0E0,0E0,0E0,0E0,0E0,0E0,0E0,0E0],"parents":[2147483647,0,0,1,1,2,2,3,3,4,4,5,5,6,6],"right_children":[2,4,6,8,10,12,14,-1,-1,-1,-1,-1,-1,-1,-1],"split_conditions":[9.12162E2,1.2002626E1,9.249075E0,2.223114E1,1.5585144E1,6.7000003E0,2.1987986E1,2.7974328E-2,-3.2888066E-2,-6.103002E-2,-1.030011E-1,1.0900917E-1,2.9633066E-2,6.536012E-2,-5.8573997E-4],"split_indices":[23,2,7,15,2,9,5,0,0,0,0,0,0,0,0],"split_type":[0,0,0,0,0,0,0,0,0,0,0,0,0,0,0],"sum_hessian":[6.1E2,2.19E2,3.91E2,6E1,1.59E2,1.31E2,2.6E2,1.8E1,4.2E1,4E1,1.19E2,9.8E1,3.3E1,9.1E1,1.69E2],"tree_param":{"num_deleted":"0","num_feature":"27","num_nodes":"15","size_leaf_vector":"1"}},{"base_weights":[3.3295998E-1,-7.0052776E0,4.0936747E0,-2.0197108E0,-9.353575E0,5.339416E0,-3.6725261E0,1.5239439E-3,-4.9674787E-2,-9.887356E-2,-2.8856443E-2,9.301958E-2,2.9594254E-2,2.5308557E-2,-4.9385004E-2],"categories":[],"categories_nodes":[],"categories_segments":[],"categories_sizes":[],"default_left":[0,0,0,0,0,0,0,0,0,0,0,0,0,0,0],"id":40,"left_children":[1,3,5,7,9,11,13,-1,-1,-1,-1,-1,-1,-1,-1],"loss_changes":[1.8242709E4,2.6036094E3,4.2474443E3,4.68166E2,4.9624316E2,3.5278877E3,4.9155115E2,0E0,0E0,0E0,0E0,0E0,0E0,0E0,0E0],"parents":[2147483647,0,0,1,1,2,2,3,3,4,4,5,5,6,6],"right_children":[2,4,6,8,10,12,14,-1,-1,-1,-1,-1,-1,-1,-1],"split_conditions":[9.12162E2,1.2622288E1,8.155386E1,1.279379E1,2.4423058E1,9.708517E0,8.487455E0,1.5239439E-3,-4.9674787E-2,-9.887356E-2,-2.8856443E-2,9.301958E-2,2.9594254E-2,2.5308557E-2,-4.9385004E-2],"split_indices":[23,2,6,22,0,2,22,0,0,0,0,0,0,0,0],"split_type":[0,0,0,0,0,0,0,0,0,0,0,0,0,0,0],"sum_hessian":[6.59E2,2.23E2,4.36E2,7.2E1,1.51E2,3.76E2,6E1,4.2E1,3E1,1.39E2,1.2E1,1.4E2,2.36E2,1E1,5E1],"tree_param":{"num_deleted":"0","num_feature":"27","num_nodes":"15","size_leaf_vector":"1"}},{"base_weights":[-1.6286695E-1,-7.299092E0,3.8441288E0,-2.0892818E0,-9.302356E0,6.312303E0,-1.0491586E0,-2.7694643E-2,5.1741183E-2,-9.580261E-2,1.6734127E-2,9.2962176E-2,4.509685E-2,-3.1610187E-2,3.3350993E-2],"categories":[],"categories_nodes":[],"categories_segments":[],"categories_sizes":[],"default_left":[0,0,0,0,0,0,0,0,0,0,0,0,0,0,0],"id":41,"left_children":[1,3,5,7,9,11,13,-1,-1,-1,-1,-1,-1,-1,-1],"loss_changes":[1.8528908E4,2.4122988E3,5.01878E3,3.4039835E2,5.284707E2,1.4426426E3,1.306794E3,0E0,0E0,0E0,0E0,0E0,0E0,0E0,0E0],"parents":[2147483647,0,0,1,1,2,2,3,3,4,4,5,5,6,6],"right_children":[2,4,6,8,10,12,14,-1,-1,-1,-1,-1,-1,-1,-1],"split_conditions":[9.12162E2,1.2779942E1,1.167342E1,2.5377918E1,2.4997015E1,2.210324E1,9.1553754E2,-2.7694643E-2,5.1741183E-2,-9.580261E-2,1.6734127E-2,9.2962176E-2,4.509685E-2,-3.1610187E-2,3.3350993E-2],"split_indices":[23,2,2,0,0,20,18,0,0,0,0,0,0,0,0],"split_type":[0,0,0,0,0,0,0,0,0,0,0,0,0,0,0],"sum_hessian":[6.46E2,2.32E2,4.14E2,6.5E1,1.67E2,2.75E2,1.39E2,6E1,5E0,1.63E2,4E0,1.02E2,1.73E2,9.4E1,4.5E1],"tree_param":{"num_deleted":"0","num_feature":"27","num_nodes":"15","size_leaf_vector":"1"}},{"base_weights":[4.4921118E-1,4.1249657E0,-6.801338E0,5.9808264E0,-1.3664725E-1,-8.842511E0,2.5245827E-1,1.4763899E-1,5.000789E-2,3.0221242E-2,-2.5252225E-2,-9.0826E-2,7.0486907E-3,6.0300622E-2,-1.1982542E-2],"categories":[],"categories_nodes":[],"categories_segments":[],"categories_sizes":[],"default_left":[0,0,0,0,0,0,0,0,0,0,0,0,0,0,0],"id":42,"left_children":[1,3,5,7,9,11,13,-1,-1,-1,-1,-1,-1,-1,-1],"loss_changes":[1.6951592E4,3.338399E3,3.0834092E3,2.4568438E3,9.809318E2,3.8690918E2,4.1792603E2,0E0,0E0,0E0,0E0,0E0,0E0,0E0,0E0],"parents":[2147483647,0,0,1,1,2,2,3,3,4,4,5,5,6,6],"right_children":[2,4,6,8,10,12,14,-1,-1,-1,-1,-1,-1,-1,-1],"split_conditions":[1.3212833E1,7.648361E1,9.132366E2,6.962127E0,2.2139822E1,2.603139E1,2.104493E1,1.4763899E-1,5.000789E-2,3.0221242E-2,-2.5252225E-2,-9.0826E-2,7.0486907E-3,6.0300622E-2,-1.1982542E-2],"split_indices":[7,1,13,7,15,5,0,0,0,0,0,0,0,0,0],"split_type":[0,0,0,0,0,0,0,0,0,0,0,0,0,0,0],"sum_hessian":[6.34E2,4.21E2,2.13E2,2.93E2,1.28E2,1.65E2,4.8E1,2.8E1,2.65E2,5.5E1,7.3E1,1.61E2,4E0,9E0,3.9E1],"tree_param":{"num_deleted":"0","num_feature":"27","num_nodes":"15","size_leaf_vector":"1"}},{"base_weights":[-5.9339404E-1,-6.566565E0,3.5254326E0,-2.9778125E0,-8.880643E0,5.340287E0,-1.1451722E0,-3.8347915E-2,1.6838891E-2,-1.1468352E-2,-9.280141E-2,8.29507E-2,3.0478405E-2,-3.9187603E-2,6.1967816E-2],"categories":[],"categories_nodes":[],"categories_segments":[],"categories_sizes":[],"default_left":[0,0,0,0,0,0,0,0,0,0,0,0,0,0,0],"id":43,"left_children":[1,3,5,7,9,11,13,-1,-1,-1,-1,-1,-1,-1,-1],"loss_changes":[1.5916338E4,2.1659834E3,3.252603E3,4.2593024E2,4.8369824E2,1.8442529E3,2.2235479E3,0E0,0E0,0E0,0E0,0E0,0E0,0E0,0E0],"parents":[2147483647,0,0,1,1,2,2,3,3,4,4,5,5,6,6],"right_children":[2,4,6,8,10,12,14,-1,-1,-1,-1,-1,-1,-1,-1],"split_conditions":[9.124082E2,1.36180525E1,2.3E0,7.1767694E-1,7.084433E1,1.0426058E1,4.0148798E-1,-3.8347915E-2,1.6838891E-2,-1.1468352E-2,-9.280141E-2,8.29507E-2,3.0478405E-2,-3.9187603E-2,6.1967816E-2],"split_indices":[18,7,4,25,1,7,25,0,0,0,0,0,0,0,0],"split_type":[0,0,0,0,0,0,0,0,0,0,0,0,0,0,0],"sum_hessian":[6.45E2,2.63E2,3.82E2,1.04E2,1.59E2,2.75E2,1.07E2,8.8E1,1.6E1,8E0,1.51E2,1.19E2,1.56E2,7.8E1,2.9E1],"tree_param":{"num_deleted":"0","num_feature":"27","num_nodes":"15","size_leaf_vector":"1"}},{"base_weights":[-3.0362546E-1,-7.0729976E0,3.8034394E0,-3.6074288E0,-9.334259E0,5.0019197E0,-2.821083E0,-4.902048E-2,2.2749228E-2,-5.2205496E-2,-9.917778E-2,1.0000141E-1,3.089005E-2,2.1304922E-2,-6.0904965E-2],"categories":[],"categories_nodes":[],"categories_segments":[],"categories_sizes":[],"default_left":[0,0,0,0,0,0,0,0,0,0,0,0,0,0,0],"id":44,"left_children":[1,3,5,7,9,11,13,-1,-1,-1,-1,-1,-1,-1,-1],"loss_changes":[1.7597924E4,1.8392637E3,3.1422183E3,7.4223047E2,2.9388574E2,3.162541E3,1.0004892E3,0E0,0E0,0E0,0E0,0E0,0E0,0E0,0E0],"parents":[2147483647,0,0,1,1,2,2,3,3,4,4,5,5,6,6],"right_children":[2,4,6,8,10,12,14,-1,-1,-1,-1,-1,-1,-1,-1],"split_conditions":[9.1217706E2,1.4469318E1,7.949478E1,2.4369238E1,1.7E0,2.2033125E1,9.505313E0,-4.902048E-2,2.2749228E-2,-5.2205496E-2,-9.917778E-2,1.0000141E-1,3.089005E-2,2.1304922E-2,-6.0904965E-2],"split_indices":[23,17,1,0,4,0,12,0,0,0,0,0,0,0,0],"split_type":[0,0,0,0,0,0,0,0,0,0,0,0,0,0,0],"sum_hessian":[6.31E2,2.38E2,3.93E2,9.5E1,1.43E2,3.33E2,6E1,7.8E1,1.7E1,1.9E1,1.24E2,9.1E1,2.42E2,2.4E1,3.6E1],"tree_param":{"num_deleted":"0","num_feature":"27","num_nodes":"15","size_leaf_vector":"1"}},{"base_weights":[-4.14942E-1,3.1284666E0,-7.0589576E0,4.79592E0,-2.149778E0,4.5926815E-1,-8.399685E0,9.249638E-2,3.1526327E-2,1.7145691E-2,-4.7752336E-2,3.9072234E-2,-4.398487E-2,-5.8591608E-2,-9.518557E-2],"categories":[],"categories_nodes":[],"categories_segments":[],"categories_sizes":[],"default_left":[0,0,0,0,0,0,0,0,0,0,0,0,0,0,0],"id":45,"left_children":[1,3,5,7,9,11,13,-1,-1,-1,-1,-1,-1,-1,-1],"loss_changes":[1.5230514E4,3.7244277E3,2.271834E3,2.3201538E3,1.043046E3,6.0341223E2,4.871504E2,0E0,0E0,0E0,0E0,0E0,0E0,0E0,0E0],"parents":[2147483647,0,0,1,1,2,2,3,3,4,4,5,5,6,6],"right_children":[2,4,6,8,10,12,14,-1,-1,-1,-1,-1,-1,-1,-1],"split_conditions":[1.32626915E1,7.949414E1,1.6714286E0,2.210324E1,2.2189524E1,2.3240393E1,1.600564E1,9.249638E-2,3.1526327E-2,1.7145691E-2,-4.7752336E-2,3.9072234E-2,-4.398487E-2,-5.8591608E-2,-9.518557E-2],"split_indices":[7,6,19,20,15,20,7,0,0,0,0,0,0,0,0],"split_type":[0,0,0,0,0,0,0,0,0,0,0,0,0,0,0],"sum_hessian":[6.45E2,4.21E2,2.24E2,3.2E2,1.01E2,3.4E1,1.9E2,8.5E1,2.35E2,4.1E1,6E1,2E1,1.4E1,6E1,1.3E2],"tree_param":{"num_deleted":"0","num_feature":"27","num_nodes":"15","size_leaf_vector":"1"}},{"base_weights":[-1.964558E-1,3.4478393E0,-7.0774393E0,5.082128E0,-1.8127854E0,-9.217098E0,-7.946716E-1,9.573049E-2,3.306351E-2,5.6398068E-2,-3.281977E-2,-7.900635E-2,-1.04238346E-1,1.3693351E-2,-7.0894465E-2],"categories":[],"categories_nodes":[],"categories_segments":[],"categories_sizes":[],"default_left":[0,0,0,0,0,0,0,0,0,0,0,0,0,0,0],"id":46,"left_children":[1,3,5,7,9,11,13,-1,-1,-1,-1,-1,-1,-1,-1],"loss_changes":[1.6223714E4,3.6459048E3,3.0039033E3,2.5442314E3,1.1243875E3,1.8294629E2,7.9978015E2,0E0,0E0,0E0,0E0,0E0,0E0,0E0,0E0],"parents":[2147483647,0,0,1,1,2,2,3,3,4,4,5,5,6,6],"right_children":[2,4,6,8,10,12,14,-1,-1,-1,-1,-1,-1,-1,-1],"split_conditions":[1.3571211E1,8.020906E1,9.1300494E2,2.2125486E1,6.1796355E0,1.7801708E1,1.9000001E0,9.573049E-2,3.306351E-2,5.6398068E-2,-3.281977E-2,-7.900635E-2,-1.04238346E-1,1.3693351E-2,-7.0894465E-2],"split_indices":[2,6,23,5,2,2,4,0,0,0,0,0,0,0,0],"split_type":[0,0,0,0,0,0,0,0,0,0,0,0,0,0,0],"sum_hessian":[6.45E2,4.22E2,2.23E2,3.22E2,1E2,1.66E2,5.7E1,9E1,2.32E2,1.6E1,8.4E1,8.3E1,8.3E1,4.3E1,1.4E1],"tree_param":{"num_deleted":"0","num_feature":"27","num_nodes":"15","size_leaf_vector":"1"}},{"base_weights":[7.343943E-2,-6.0141425E0,4.0907516E0,-1.84871E0,-8.788166E0,7.9479785E0,1.534366E0,-3.2205068E-2,4.6021767E-2,-4.4617582E-2,-9.4234064E-2,1.265824E-1,6.403037E-2,7.291238E-2,-1.7618423E-3],"categories":[],"categories_nodes":[],"categories_segments":[],"categories_sizes":[],"default_left":[0,0,0,0,0,0,0,0,0,0,0,0,0,0,0],"id":47,"left_children":[1,3,5,7,9,11,13,-1,-1,-1,-1,-1,-1,-1,-1],"loss_changes":[1.6116465E4,3.011165E3,3.9024468E3,9.528477E2,3.8943945E2,1.0687275E3,2.364665E3,0E0,0E0,0E0,0E0,0E0,0E0,0E0,0E0],"parents":[2147483647,0,0,1,1,2,2,3,3,4,4,5,5,6,6],"right_children":[2,4,6,8,10,12,14,-1,-1,-1,-1,-1,-1,-1,-1],"split_conditions":[9.124082E2,1.35389E1,9.708517E0,2.6212639E1,7.464096E1,7.0724545E0,2.104493E1,-3.2205068E-2,4.6021767E-2,-4.4617582E-2,-9.4234064E-2,1.265824E-1,6.403037E-2,7.291238E-2,-1.7618423E-3],"split_indices":[18,17,7,0,16,7,0,0,0,0,0,0,0,0,0],"split_type":[0,0,0,0,0,0,0,0,0,0,0,0,0,0,0],"sum_hessian":[6.57E2,2.61E2,3.96E2,1.05E2,1.56E2,1.57E2,2.39E2,8.7E1,1.8E1,2.1E1,1.35E2,3.7E1,1.2E2,5.4E1,1.85E2],"tree_param":{"num_deleted":"0","num_feature":"27","num_nodes":"15","size_leaf_vector":"1"}},{"base_weights":[3.3458596E-1,-5.725242E0,4.134749E0,-1.9542953E0,-8.330384E0,5.3509274E0,-1.2941322E0,-3.621679E-2,2.7497075E-2,-8.785183E-2,-3.0716233E-2,1.527718E-1,4.525229E-2,3.3579852E-2,-4.8934888E-2],"categories":[],"categories_nodes":[],"categories_segments":[],"categories_sizes":[],"default_left":[0,0,0,0,0,0,0,0,0,0,0,0,0,0,0],"id":48,"left_children":[1,3,5,7,9,11,13,-1,-1,-1,-1,-1,-1,-1,-1],"loss_changes":[1.4577581E4,2.3807397E3,2.575293E3,8.021398E2,3.17417E2,2.5372246E3,1.2220458E3,0E0,0E0,0E0,0E0,0E0,0E0,0E0,0E0],"parents":[2147483647,0,0,1,1,2,2,3,3,4,4,5,5,6,6],"right_children":[2,4,6,8,10,12,14,-1,-1,-1,-1,-1,-1,-1,-1],"split_conditions":[9.124082E2,1.2950629E1,7E0,7.1767694E-1,2.399488E1,8.14371E0,8.7927685E0,-3.621679E-2,2.7497075E-2,-8.785183E-2,-3.0716233E-2,1.527718E-1,4.525229E-2,3.3579852E-2,-4.8934888E-2],"split_indices":[18,22,9,25,15,22,12,0,0,0,0,0,0,0,0],"split_type":[0,0,0,0,0,0,0,0,0,0,0,0,0,0,0],"sum_hessian":[6.31E2,2.43E2,3.88E2,1E2,1.43E2,3.17E2,7.1E1,7.4E1,2.6E1,1.31E2,1.2E1,2.3E1,2.94E2,3.1E1,4E1],"tree_param":{"num_deleted":"0","num_feature":"27","num_nodes":"15","size_leaf_vector":"1"}},{"base_weights":[-2.0658486E-1,-5.65502E0,3.462453E0,-5.758973E-1,-7.867319E0,4.7482786E0,-2.479005E0,-1.9374354E-2,5.2466333E-2,-8.448546E-2,-1.5238928E-2,7.345357E-2,1.7324923E-2,5.4910235E-2,-4.8542097E-2],"categories":[],"categories_nodes":[],"categories_segments":[],"categories_sizes":[],"default_left":[0,0,0,0,0,0,0,0,0,0,0,0,0,0,0],"id":49,"left_children":[1,3,5,7,9,11,13,-1,-1,-1,-1,-1,-1,-1,-1],"loss_changes":[1.3413225E4,3.029334E3,3.0752827E3,6.6815576E2,6.802744E2,2.5719111E3,1.389647E3,0E0,0E0,0E0,0E0,0E0,0E0,0E0,0E0],"parents":[2147483647,0,0,1,1,2,2,3,3,4,4,5,5,6,6],"right_children":[2,4,6,8,10,12,14,-1,-1,-1,-1,-1,-1,-1,-1],"split_conditions":[9.124082E2,1.1191494E1,6.8E0,2.5829306E1,2.512375E1,1.1096163E1,7.375934E0,-1.9374354E-2,5.2466333E-2,-8.448546E-2,-1.5238928E-2,7.345357E-2,1.7324923E-2,5.4910235E-2,-4.8542097E-2],"split_indices":[18,2,4,0,0,2,2,0,0,0,0,0,0,0,0],"split_type":[0,0,0,0,0,0,0,0,0,0,0,0,0,0,0],"sum_hessian":[6.69E2,2.69E2,4E2,8.2E1,1.87E2,3.29E2,7.1E1,6.7E1,1.5E1,1.71E2,1.6E1,1.76E2,1.53E2,1.6E1,5.5E1],"tree_param":{"num_deleted":"0","num_feature":"27","num_nodes":"15","size_leaf_vector":"1"}},{"base_weights":[-4.0016255E-1,2.8549702E0,-7.546728E0,5.156608E0,-1.2402462E0,-8.790597E0,-1.881653E0,1.6273874E-1,4.30772E-2,3.0565707E-2,-3.4169562E-2,9.000761E-3,-8.973353E-2,1.7466875E-2,-5.2344937E-2],"categories":[],"categories_nodes":[],"categories_segments":[],"categories_sizes":[],"default_left":[0,0,0,0,0,0,0,0,0,0,0,0,0,0,0],"id":50,"left_children":[1,3,5,7,9,11,13,-1,-1,-1,-1,-1,-1,-1,-1],"loss_changes":[1.51657705E4,4.2291113E3,1.4209688E3,2.6384058E3,1.525618E3,3.0383887E2,4.7142242E2,0E0,0E0,0E0,0E0,0E0,0E0,0E0,0E0],"parents":[2147483647,0,0,1,1,2,2,3,3,4,4,5,5,6,6],"right_children":[2,4,6,8,10,12,14,-1,-1,-1,-1,-1,-1,-1,-1],"split_conditions":[1.3932873E1,4.7000003E0,2.1516098E-2,7.0083065E0,8.725833E0,8.940045E0,8.779601E-1,1.6273874E-1,4.30772E-2,3.0565707E-2,-3.4169562E-2,9.000761E-3,-8.973353E-2,1.7466875E-2,-5.2344937E-2],"split_indices":[7,4,26,7,17,22,26,0,0,0,0,0,0,0,0],"split_type":[0,0,0,0,0,0,0,0,0,0,0,0,0,0,0],"sum_hessian":[6.5E2,4.47E2,2.03E2,2.86E2,1.61E2,1.66E2,3.7E1,1.9E1,2.67E2,5.4E1,1.07E2,3E0,1.63E2,1.8E1,1.9E1],"tree_param":{"num_deleted":"0","num_feature":"27","num_nodes":"15","size_leaf_vector":"1"}},{"base_weights":[-6.397232E-2,-6.359739E0,3.4757304E0,-2.9050648E0,-8.619591E0,6.4877524E0,8.4953195E-1,1.3901426E-2,-3.8236905E-2,-9.046785E-2,-3.0597568E-2,1.550758E-1,5.6813087E-2,2.4979088E-2,-5.3912695E-2],"categories":[],"categories_nodes":[],"categories_segments":[],"categories_sizes":[],"default_left":[0,0,0,0,0,0,0,0,0,0,0,0,0,0,0],"id":51,"left_children":[1,3,5,7,9,11,13,-1,-1,-1,-1,-1,-1,-1,-1],"loss_changes":[1.51091455E4,1.8798799E3,3.427502E3,3.919928E2,3.2146387E2,1.3812412E3,2.4103828E3,0E0,0E0,0E0,0E0,0E0,0E0,0E0,0E0],"parents":[2147483647,0,0,1,1,2,2,3,3,4,4,5,5,6,6],"right_children":[2,4,6,8,10,12,14,-1,-1,-1,-1,-1,-1,-1,-1],"split_conditions":[9.12162E2,1.4269557E1,1.0250413E1,2.223114E1,2.4239723E1,6.567797E0,7E0,1.3901426E-2,-3.8236905E-2,-9.046785E-2,-3.0597568E-2,1.550758E-1,5.6813087E-2,2.4979088E-2,-5.3912695E-2],"split_indices":[23,7,7,15,5,17,9,0,0,0,0,0,0,0,0],"split_type":[0,0,0,0,0,0,0,0,0,0,0,0,0,0,0],"sum_hessian":[6.76E2,2.43E2,4.33E2,9.7E1,1.46E2,2.01E2,2.32E2,1.7E1,8E1,1.35E2,1.1E1,1.5E1,1.86E2,1.84E2,4.8E1],"tree_param":{"num_deleted":"0","num_feature":"27","num_nodes":"15","size_leaf_vector":"1"}},{"base_weights":[-2.549639E-1,-6.010574E0,3.3127224E0,3.3705008E0,-7.109589E0,8.286439E0,2.043718E0,2.2528423E-2,1.156082E-1,-5.542287E-2,-9.120643E-2,1.1411708E-1,1.851573E-2,6.3754834E-2,4.2667557E-3],"categories":[],"categories_nodes":[],"categories_segments":[],"categories_sizes":[],"default_left":[0,0,0,0,0,0,0,0,0,0,0,0,0,0,0],"id":52,"left_children":[1,3,5,7,9,11,13,-1,-1,-1,-1,-1,-1,-1,-1],"loss_changes":[1.3469819E4,2.6117598E3,2.53929E3,2.2111273E2,6.586338E2,1.6279468E3,2.2667861E3,0E0,0E0,0E0,0E0,0E0,0E0,0E0,0E0],"parents":[2147483647,0,0,1,1,2,2,3,3,4,4,5,5,6,6],"right_children":[2,4,6,8,10,12,14,-1,-1,-1,-1,-1,-1,-1,-1],"split_conditions":[9.122392E2,8.725833E0,8.880854E0,8.490707E0,1.6870111E1,6.7000003E0,2.1580446E1,2.2528423E-2,1.156082E-1,-5.542287E-2,-9.120643E-2,1.1411708E-1,1.851573E-2,6.3754834E-2,4.2667557E-3],"split_indices":[18,17,17,17,17,9,15,0,0,0,0,0,0,0,0],"split_type":[0,0,0,0,0,0,0,0,0,0,0,0,0,0,0],"sum_hessian":[6.54E2,2.5E2,4.04E2,2.6E1,2.24E2,8.1E1,3.23E2,2.4E1,2E0,1.28E2,9.6E1,5.4E1,2.7E1,8.7E1,2.36E2],"tree_param":{"num_deleted":"0","num_feature":"27","num_nodes":"15","size_leaf_vector":"1"}},{"base_weights":[2.5903672E-1,3.5602167E0,-6.151178E0,6.5522428E0,1.4292567E0,-8.172318E0,-6.827198E-1,9.0344466E-2,2.059848E-2,4.5108147E-2,-3.1768814E-2,-8.736377E-2,-2.4792505E-2,2.025532E-2,-5.5757813E-2],"categories":[],"categories_nodes":[],"categories_segments":[],"categories_sizes":[],"default_left":[0,0,0,0,0,0,0,0,0,0,0,0,0,0,0],"id":53,"left_children":[1,3,5,7,9,11,13,-1,-1,-1,-1,-1,-1,-1,-1],"loss_changes":[1.381905E4,2.738643E3,2.448081E3,1.9774263E3,3.6054333E3,4.9855957E2,8.1964417E2,0E0,0E0,0E0,0E0,0E0,0E0,0E0,0E0],"parents":[2147483647,0,0,1,1,2,2,3,3,4,4,5,5,6,6],"right_children":[2,4,6,8,10,12,14,-1,-1,-1,-1,-1,-1,-1,-1],"split_conditions":[1.3212833E1,9.435276E0,2.1516098E-2,7E0,1E-1,2.506889E1,3.5E0,9.0344466E-2,2.059848E-2,4.5108147E-2,-3.1768814E-2,-8.736377E-2,-2.4792505E-2,2.025532E-2,-5.5757813E-2],"split_indices":[2,2,26,9,4,0,4,0,0,0,0,0,0,0,0],"split_type":[0,0,0,0,0,0,0,0,0,0,0,0,0,0,0],"sum_hessian":[6.51E2,4.3E2,2.21E2,1.78E2,2.52E2,1.61E2,6E1,1.14E2,6.4E1,1.51E2,1.01E2,1.46E2,1.5E1,3.9E1,2.1E1],"tree_param":{"num_deleted":"0","num_feature":"27","num_nodes":"15","size_leaf_vector":"1"}},{"base_weights":[-8.299137E-2,2.7973127E0,-6.4079585E0,4.741965E0,-2.1552477E0,-8.108916E0,9.963241E-1,1.00045614E-1,3.4736775E-2,5.9514005E-2,-3.2940973E-2,-8.552963E-2,-4.22324E-2,3.112381E-2,-9.121705E-2],"categories":[],"categories_nodes":[],"categories_segments":[],"categories_sizes":[],"default_left":[0,0,0,0,0,0,0,0,0,0,0,0,0,0,0],"id":54,"left_children":[1,3,5,7,9,11,13,-1,-1,-1,-1,-1,-1,-1,-1],"loss_changes":[1.1877732E4,4.324911E3,2.577332E3,2.1144302E3,1.1921003E3,2.5029883E2,8.63393E2,0E0,0E0,0E0,0E0,0E0,0E0,0E0,0E0],"parents":[2147483647,0,0,1,1,2,2,3,3,4,4,5,5,6,6],"right_children":[2,4,6,8,10,12,14,-1,-1,-1,-1,-1,-1,-1,-1],"split_conditions":[1.3253523E1,7E0,2.1516098E-2,9.075481E0,6.2902527E1,2.4056738E1,8.140046E1,1.00045614E-1,3.4736775E-2,5.9514005E-2,-3.2940973E-2,-8.552963E-2,-4.22324E-2,3.112381E-2,-9.121705E-2],"split_indices":[17,4,26,17,16,15,16,0,0,0,0,0,0,0,0],"split_type":[0,0,0,0,0,0,0,0,0,0,0,0,0,0,0],"sum_hessian":[6.5E2,4.47E2,2.03E2,3.21E2,1.26E2,1.65E2,3.8E1,6.1E1,2.6E2,1.5E1,1.11E2,1.47E2,1.8E1,3.2E1,6E0],"tree_param":{"num_deleted":"0","num_feature":"27","num_nodes":"15","size_leaf_vector":"1"}},{"base_weights":[-1.5123124E-1,3.1335747E0,-6.4202685E0,4.638137E0,-1.8195419E0,-7.287405E-1,-8.37975E0,6.7682795E-2,1.6290845E-2,2.7793478E-2,-3.9314266E-2,3.0898584E-2,-3.0208204E-2,6.2497158E-2,-8.502569E-2],"categories":[],"categories_nodes":[],"categories_segments":[],"categories_sizes":[],"default_left":[0,0,0,0,0,0,0,0,0,0,0,0,0,0,0],"id":55,"left_children":[1,3,5,7,9,11,13,-1,-1,-1,-1,-1,-1,-1,-1],"loss_changes":[1.3775957E4,3.2799868E3,2.558956E3,2.1490464E3,1.0112964E3,5.3448596E2,3.6038672E2,0E0,0E0,0E0,0E0,0E0,0E0,0E0,0E0],"parents":[2147483647,0,0,1,1,2,2,3,3,4,4,5,5,6,6],"right_children":[2,4,6,8,10,12,14,-1,-1,-1,-1,-1,-1,-1,-1],"split_conditions":[1.3111851E1,7.949478E1,7.214346E1,1.0383929E1,7.2769184E0,2.3397709E1,1.9484514E1,6.7682795E-2,1.6290845E-2,2.7793478E-2,-3.9314266E-2,3.0898584E-2,-3.0208204E-2,6.2497158E-2,-8.502569E-2],"split_indices":[2,1,1,2,2,0,0,0,0,0,0,0,0,0,0],"split_type":[0,0,0,0,0,0,0,0,0,0,0,0,0,0,0],"sum_hessian":[6.67E2,4.38E2,2.29E2,3.36E2,1.02E2,5.9E1,1.7E2,1.96E2,1.4E2,3.2E1,7E1,2.2E1,3.7E1,1E0,1.69E2],"tree_param":{"num_deleted":"0","num_feature":"27","num_nodes":"15","size_leaf_vector":"1"}},{"base_weights":[-6.0306273E-2,3.17939E0,-6.420534E0,-1.5956035E0,4.583529E0,-8.2094555E0,-6.9635516E-1,-3.4236457E-2,4.875073E-2,7.8596845E-2,2.2294411E-2,-8.995E-2,-4.1882604E-2,2.6475007E-2,-5.528493E-2],"categories":[],"categories_nodes":[],"categories_segments":[],"categories_sizes":[],"default_left":[0,0,0,0,0,0,0,0,0,0,0,0,0,0,0],"id":56,"left_children":[1,3,5,7,9,11,13,-1,-1,-1,-1,-1,-1,-1,-1],"loss_changes":[1.3310771E4,2.8769482E3,2.226627E3,1.1759001E3,2.535267E3,4.866914E2,8.710093E2,0E0,0E0,0E0,0E0,0E0,0E0,0E0,0E0],"parents":[2147483647,0,0,1,1,2,2,3,3,4,4,5,5,6,6],"right_children":[2,4,6,8,10,12,14,-1,-1,-1,-1,-1,-1,-1,-1],"split_conditions":[1.3496424E1,9.123995E2,2.1516098E-2,6.994583E-1,9.708517E0,2.4336275E1,7.56492E1,-3.4236457E-2,4.875073E-2,7.8596845E-2,2.2294411E-2,-8.995E-2,-4.1882604E-2,2.6475007E-2,-5.528493E-2],"split_indices":[2,18,26,25,2,20,1,0,0,0,0,0,0,0,0],"split_type":[0,0,0,0,0,0,0,0,0,0,0,0,0,0,0],"sum_hessian":[6.44E2,4.27E2,2.17E2,9.7E1,3.3E2,1.65E2,5.2E1,7.6E1,2.1E1,1.37E2,1.93E2,1.37E2,2.8E1,3.1E1,2.1E1],"tree_param":{"num_deleted":"0","num_feature":"27","num_nodes":"15","size_leaf_vector":"1"}},{"base_weights":[2.501265E-1,4.2733006E0,-4.818539E0,5.663513E0,-8.076383E-1,-7.4773674E0,9.929998E-2,9.2978716E-2,3.4218095E-2,2.7490312E-2,-2.638839E-2,-4.892022E-2,-8.478362E-2,1.3042123E-2,-5.5291407E-2],"categories":[],"categories_nodes":[],"categories_segments":[],"categories_sizes":[],"default_left":[0,0,0,0,0,0,0,0,0,0,0,0,0,0,0],"id":57,"left_children":[1,3,5,7,9,11,13,-1,-1,-1,-1,-1,-1,-1,-1],"loss_changes":[1.3132728E4,2.540401E3,3.727314E3,2.2656836E3,5.152664E2,4.372881E2,6.921708E2,0E0,0E0,0E0,0E0,0E0,0E0,0E0,0E0],"parents":[2147483647,0,0,1,1,2,2,3,3,4,4,5,5,6,6],"right_children":[2,4,6,8,10,12,14,-1,-1,-1,-1,-1,-1,-1,-1],"split_conditions":[1.2026539E1,8.020906E1,9.1337714E2,2.2706043E1,7.258693E0,1.3737197E1,7.934186E1,9.2978716E-2,3.4218095E-2,2.7490312E-2,-2.638839E-2,-4.892022E-2,-8.478362E-2,1.3042123E-2,-5.5291407E-2],"split_indices":[2,6,23,5,2,17,6,0,0,0,0,0,0,0,0],"split_type":[0,0,0,0,0,0,0,0,0,0,0,0,0,0,0],"sum_hessian":[6.42E2,3.58E2,2.84E2,2.81E2,7.7E1,1.84E2,1E2,1.06E2,1.75E2,2.6E1,5.1E1,5.3E1,1.31E2,8.3E1,1.7E1],"tree_param":{"num_deleted":"0","num_feature":"27","num_nodes":"15","size_leaf_vector":"1"}},{"base_weights":[-8.2742386E-2,-5.408719E0,3.8864312E0,-6.188655E0,4.2080717E0,7.3412395E0,1.850563E0,-8.361104E-2,-5.012801E-2,7.6174163E-3,7.92286E-2,9.2475966E-2,-1.8609786E-2,3.9070588E-2,-2.1556955E-2],"categories":[],"categories_nodes":[],"categories_segments":[],"categories_sizes":[],"default_left":[0,0,0,0,0,0,0,0,0,0,0,0,0,0,0],"id":58,"left_children":[1,3,5,7,9,11,13,-1,-1,-1,-1,-1,-1,-1,-1],"loss_changes":[1.3465886E4,2.0661729E3,2.5536548E3,6.018164E2,2.62815E2,2.385476E3,1.9115977E3,0E0,0E0,0E0,0E0,0E0,0E0,0E0,0E0],"parents":[2147483647,0,0,1,1,2,2,3,3,4,4,5,5,6,6],"right_children":[2,4,6,8,10,12,14,-1,-1,-1,-1,-1,-1,-1,-1],"split_conditions":[9.124393E2,2.5997362E1,2.2048899E1,-9.051932E-1,1.1E0,6.8E0,6.3769558E1,-8.361104E-2,-5.012801E-2,7.6174163E-3,7.92286E-2,9.2475966E-2,-1.8609786E-2,3.9070588E-2,-2.1556955E-2],"split_indices":[18,0,15,26,9,4,16,0,0,0,0,0,0,0,0],"split_type":[0,0,0,0,0,0,0,0,0,0,0,0,0,0,0],"sum_hessian":[6.35E2,2.71E2,3.64E2,2.51E2,2E1,1.34E2,2.3E2,8.6E1,1.65E2,1.1E1,9E0,1.11E2,2.3E1,1.52E2,7.8E1],"tree_param":{"num_deleted":"0","num_feature":"27","num_nodes":"15","size_leaf_vector":"1"}},{"base_weights":[1.24446414E-1,4.286905E0,-4.7851787E0,-1.4196067E-1,6.302257E0,3.3405507E-1,-7.258178E0,9.082317E-3,-4.736044E-2,1.2260581E-1,5.3122796E-2,1.852049E-2,-3.0554816E-2,-5.1072344E-2,-8.892623E-2],"categories":[],"categories_nodes":[],"categories_segments":[],"categories_sizes":[],"default_left":[0,0,0,0,0,0,0,0,0,0,0,0,0,0,0],"id":59,"left_children":[1,3,5,7,9,11,13,-1,-1,-1,-1,-1,-1,-1,-1],"loss_changes":[1.3406165E4,3.1695269E3,3.813044E3,5.446647E2,1.3741289E3,5.150432E2,6.6825E2,0E0,0E0,0E0,0E0,0E0,0E0,0E0,0E0],"parents":[2147483647,0,0,1,1,2,2,3,3,4,4,5,5,6,6],"right_children":[2,4,6,8,10,12,14,-1,-1,-1,-1,-1,-1,-1,-1],"split_conditions":[1.1764724E1,9.125754E2,6E-1,7.19E1,7.0083065E0,2.4208124E1,1.600564E1,9.082317E-3,-4.736044E-2,1.2260581E-1,5.3122796E-2,1.852049E-2,-3.0554816E-2,-5.1072344E-2,-8.892623E-2],"split_indices":[2,23,9,9,2,10,7,0,0,0,0,0,0,0,0],"split_type":[0,0,0,0,0,0,0,0,0,0,0,0,0,0,0],"sum_hessian":[6.54E2,3.54E2,3E2,1.11E2,2.43E2,9.8E1,2.02E2,9.1E1,2E1,3.3E1,2.1E2,6.8E1,3E1,8.9E1,1.13E2],"tree_param":{"num_deleted":"0","num_feature":"27","num_nodes":"15","size_leaf_vector":"1"}},{"base_weights":[-1.0258478E-1,-5.219534E0,3.6751175E0,-7.108196E-1,-7.096481E0,5.9261975E0,1.1425576E0,1.14304805E-2,-3.3388928E-2,-4.4966005E-2,-8.240247E-2,7.163846E-2,1.3191006E-2,6.281185E-2,-1.150345E-2],"categories":[],"categories_nodes":[],"categories_segments":[],"categories_sizes":[],"default_left":[0,0,0,0,0,0,0,0,0,0,0,0,0,0,0],"id":60,"left_children":[1,3,5,7,9,11,13,-1,-1,-1,-1,-1,-1,-1,-1],"loss_changes":[1.2835177E4,2.3814146E3,2.1710088E3,4.130729E2,5.547041E2,1.1423467E3,2.1398354E3,0E0,0E0,0E0,0E0,0E0,0E0,0E0,0E0],"parents":[2147483647,0,0,1,1,2,2,3,3,4,4,5,5,6,6],"right_children":[2,4,6,8,10,12,14,-1,-1,-1,-1,-1,-1,-1,-1],"split_conditions":[9.124082E2,1.0895103E1,1.0936132E1,8.233487E1,7.648361E1,7.778256E1,2.1449791E1,1.14304805E-2,-3.3388928E-2,-4.4966005E-2,-8.240247E-2,7.163846E-2,1.3191006E-2,6.281185E-2,-1.150345E-2],"split_indices":[18,7,7,6,1,1,5,0,0,0,0,0,0,0,0],"split_type":[0,0,0,0,0,0,0,0,0,0,0,0,0,0,0],"sum_hessian":[6.62E2,2.81E2,3.81E2,8.3E1,1.98E2,2.01E2,1.8E2,4.9E1,3.4E1,6.2E1,1.36E2,1.58E2,4.3E1,5.5E1,1.25E2],"tree_param":{"num_deleted":"0","num_feature":"27","num_nodes":"15","size_leaf_vector":"1"}},{"base_weights":[-7.417454E-2,-5.614289E0,3.332153E0,-1.3211814E0,-7.285777E0,7.2513204E0,1.3891363E0,-2.14344E-2,3.90894E-2,1.795035E-2,-7.503596E-2,8.574927E-2,-1.7549766E-2,4.4067066E-2,-1.6608365E-2],"categories":[],"categories_nodes":[],"categories_segments":[],"categories_sizes":[],"default_left":[0,0,0,0,0,0,0,0,0,0,0,0,0,0,0],"id":61,"left_children":[1,3,5,7,9,11,13,-1,-1,-1,-1,-1,-1,-1,-1],"loss_changes":[1.2341761E4,1.777167E3,3.0740054E3,3.1371497E2,3.6752637E2,1.612436E3,2.5106729E3,0E0,0E0,0E0,0E0,0E0,0E0,0E0,0E0],"parents":[2147483647,0,0,1,1,2,2,3,3,4,4,5,5,6,6],"right_children":[2,4,6,8,10,12,14,-1,-1,-1,-1,-1,-1,-1,-1],"split_conditions":[9.122056E2,1.2265827E1,2.210324E1,5.1399998E1,6.491606E1,8.366268E1,1.0793792E1,-2.14344E-2,3.90894E-2,1.795035E-2,-7.503596E-2,8.574927E-2,-1.7549766E-2,4.4067066E-2,-1.6608365E-2],"split_indices":[18,7,20,14,1,1,22,0,0,0,0,0,0,0,0],"split_type":[0,0,0,0,0,0,0,0,0,0,0,0,0,0,0],"sum_hessian":[6.52E2,2.48E2,4.04E2,7E1,1.78E2,1.33E2,2.71E2,6.1E1,9E0,4E0,1.74E2,1.16E2,1.7E1,1.36E2,1.35E2],"tree_param":{"num_deleted":"0","num_feature":"27","num_nodes":"15","size_leaf_vector":"1"}},{"base_weights":[-1.7985429E-1,-5.817524E0,3.3105824E0,9.59147E-2,-7.433545E0,5.3502393E0,3.0932156E-2,2.3601042E-2,-2.0908365E-2,-7.762558E-2,1.9200557E-3,8.548676E-2,3.1745937E-2,4.8452705E-2,-1.7587416E-2],"categories":[],"categories_nodes":[],"categories_segments":[],"categories_sizes":[],"default_left":[0,0,0,0,0,0,0,0,0,0,0,0,0,0,0],"id":62,"left_children":[1,3,5,7,9,11,13,-1,-1,-1,-1,-1,-1,-1,-1],"loss_changes":[1.2711523E4,2.3611055E3,2.6688892E3,2.7230048E2,4.8821777E2,1.6846938E3,1.3354003E3,0E0,0E0,0E0,0E0,0E0,0E0,0E0,0E0],"parents":[2147483647,0,0,1,1,2,2,3,3,4,4,5,5,6,6],"right_children":[2,4,6,8,10,12,14,-1,-1,-1,-1,-1,-1,-1,-1],"split_conditions":[9.121445E2,1.0167836E1,1.1438322E1,7.4205093E0,2.5169584E1,2.24925E1,2.1558126E1,2.3601042E-2,-2.0908365E-2,-7.762558E-2,1.9200557E-3,8.548676E-2,3.1745937E-2,4.8452705E-2,-1.7587416E-2],"split_indices":[18,2,2,7,5,15,5,0,0,0,0,0,0,0,0],"split_type":[0,0,0,0,0,0,0,0,0,0,0,0,0,0,0],"sum_hessian":[6.44E2,2.46E2,3.98E2,5.3E1,1.93E2,2.45E2,1.53E2,2.6E1,2.7E1,1.85E2,8E0,9.8E1,1.47E2,4.1E1,1.12E2],"tree_param":{"num_deleted":"0","num_feature":"27","num_nodes":"15","size_leaf_vector":"1"}},{"base_weights":[-2.5914812E-1,-5.2319603E0,3.1272855E0,-2.0813742E0,-7.5539503E0,5.962855E0,6.552465E-1,7.8850845E-3,-3.935008E-2,-3.049024E-2,-8.119602E-2,-4.896938E-2,6.512407E-2,2.9622648E-2,-4.7259312E-2],"categories":[],"categories_nodes":[],"categories_segments":[],"categories_sizes":[],"default_left":[0,0,0,0,0,0,0,0,0,0,0,0,0,0,0],"id":63,"left_children":[1,3,5,7,9,11,13,-1,-1,-1,-1,-1,-1,-1,-1],"loss_changes":[1.0642464E4,1.8570781E3,2.6317168E3,5.88271E2,3.4983203E2,1.0762954E3,2.5217239E3,0E0,0E0,0E0,0E0,0E0,0E0,0E0,0E0],"parents":[2147483647,0,0,1,1,2,2,3,3,4,4,5,5,6,6],"right_children":[2,4,6,8,10,12,14,-1,-1,-1,-1,-1,-1,-1,-1],"split_conditions":[9.124082E2,1.4082316E1,1.0426058E1,7E0,7.2330536E1,9.121292E2,3E-1,7.8850845E-3,-3.935008E-2,-3.049024E-2,-8.119602E-2,-4.896938E-2,6.512407E-2,2.9622648E-2,-4.7259312E-2],"split_indices":[18,7,7,9,1,23,4,0,0,0,0,0,0,0,0],"split_type":[0,0,0,0,0,0,0,0,0,0,0,0,0,0,0],"sum_hessian":[6.3E2,2.55E2,3.75E2,1.09E2,1.46E2,1.74E2,2.01E2,4.3E1,6.6E1,1.7E1,1.29E2,8E0,1.66E2,1.41E2,6E1],"tree_param":{"num_deleted":"0","num_feature":"27","num_nodes":"15","size_leaf_vector":"1"}},{"base_weights":[-6.6971056E-2,4.2887697E0,-4.6396117E0,5.9829235E0,-9.678325E-1,-7.23032E0,-7.2762454E-1,9.723865E-2,4.6519488E-2,9.670264E-2,-2.2314996E-2,-4.725942E-2,-8.4945954E-2,3.3487983E-2,-2.4666669E-2],"categories":[],"categories_nodes":[],"categories_segments":[],"categories_sizes":[],"default_left":[0,0,0,0,0,0,0,0,0,0,0,0,0,0,0],"id":64,"left_children":[1,3,5,7,9,11,13,-1,-1,-1,-1,-1,-1,-1,-1],"loss_changes":[1.3105523E4,3.006941E3,3.2480151E3,1.2244355E3,1.1373494E3,5.709365E2,9.2275073E2,0E0,0E0,0E0,0E0,0E0,0E0,0E0,0E0],"parents":[2147483647,0,0,1,1,2,2,3,3,4,4,5,5,6,6],"right_children":[2,4,6,8,10,12,14,-1,-1,-1,-1,-1,-1,-1,-1],"split_conditions":[1.167342E1,7.909854E1,9.131637E2,2.1991806E1,5.485308E0,1.5507963E1,2.1558126E1,9.723865E-2,4.6519488E-2,9.670264E-2,-2.2314996E-2,-4.725942E-2,-8.4945954E-2,3.3487983E-2,-2.4666669E-2],"split_indices":[2,1,23,15,2,2,5,0,0,0,0,0,0,0,0],"split_type":[0,0,0,0,0,0,0,0,0,0,0,0,0,0,0],"sum_hessian":[6.56E2,3.36E2,3.2E2,2.54E2,8.2E1,1.92E2,1.28E2,6.5E1,1.89E2,8E0,7.4E1,6.6E1,1.26E2,3.8E1,9E1],"tree_param":{"num_deleted":"0","num_feature":"27","num_nodes":"15","size_leaf_vector":"1"}},{"base_weights":[2.0255084E-1,-5.108866E0,3.782629E0,-6.586187E0,5.531135E-1,5.059941E0,-1.1875211E0,-3.9537538E-2,-7.700549E-2,1.7782794E-2,-5.3829946E-2,7.9144105E-2,2.2964554E-2,2.7333744E-2,-3.9639257E-2],"categories":[],"categories_nodes":[],"categories_segments":[],"categories_sizes":[],"default_left":[0,0,0,0,0,0,0,0,0,0,0,0,0,0,0],"id":65,"left_children":[1,3,5,7,9,11,13,-1,-1,-1,-1,-1,-1,-1,-1],"loss_changes":[1.2797598E4,2.270439E3,2.5580781E3,6.002539E2,4.241174E2,2.5060752E3,9.143722E2,0E0,0E0,0E0,0E0,0E0,0E0,0E0,0E0],"parents":[2147483647,0,0,1,1,2,2,3,3,4,4,5,5,6,6],"right_children":[2,4,6,8,10,12,14,-1,-1,-1,-1,-1,-1,-1,-1],"split_conditions":[9.124082E2,4.171936E-1,7.789786E1,1.35389E1,1.5823091E1,1.0834705E1,6.7000003E0,-3.9537538E-2,-7.700549E-2,1.7782794E-2,-5.3829946E-2,7.9144105E-2,2.2964554E-2,2.7333744E-2,-3.9639257E-2],"split_indices":[18,25,1,17,17,22,9,0,0,0,0,0,0,0,0],"split_type":[0,0,0,0,0,0,0,0,0,0,0,0,0,0,0],"sum_hessian":[6.71E2,2.7E2,4.01E2,2.14E2,5.6E1,3.19E2,8.2E1,6.5E1,1.49E2,4.7E1,9E0,1.56E2,1.63E2,3.4E1,4.8E1],"tree_param":{"num_deleted":"0","num_feature":"27","num_nodes":"15","size_leaf_vector":"1"}},{"base_weights":[-1.724186E-1,-5.8639016E0,3.242897E0,-6.443553E0,1.3090142E0,7.1430383E0,1.9746336E0,-6.57558E-2,5.5183176E-2,-1.0766453E-2,3.141916E-2,4.0352486E-2,1.1441001E-1,5.6133125E-2,-3.2683436E-3],"categories":[],"categories_nodes":[],"categories_segments":[],"categories_sizes":[],"default_left":[0,0,0,0,0,0,0,0,0,0,0,0,0,0,0],"id":66,"left_children":[1,3,5,7,9,11,13,-1,-1,-1,-1,-1,-1,-1,-1],"loss_changes":[1.2595539E4,1.01877734E3,1.9891895E3,3.9162598E2,8.646365E1,1.2761924E3,2.572746E3,0E0,0E0,0E0,0E0,0E0,0E0,0E0,0E0],"parents":[2147483647,0,0,1,1,2,2,3,3,4,4,5,5,6,6],"right_children":[2,4,6,8,10,12,14,-1,-1,-1,-1,-1,-1,-1,-1],"split_conditions":[9.122392E2,2.5237638E1,2.1533821E1,8.712751E1,9.106063E2,7.657047E1,1.0157878E1,-6.57558E-2,5.5183176E-2,-1.0766453E-2,3.141916E-2,4.0352486E-2,1.1441001E-1,5.6133125E-2,-3.2683436E-3],"split_indices":[18,0,0,16,13,11,22,0,0,0,0,0,0,0,0],"split_type":[0,0,0,0,0,0,0,0,0,0,0,0,0,0,0],"sum_hessian":[6.46E2,2.42E2,4.04E2,2.24E2,1.8E1,9.8E1,3.06E2,2.22E2,2E0,8E0,1E1,5.8E1,4E1,1.18E2,1.88E2],"tree_param":{"num_deleted":"0","num_feature":"27","num_nodes":"15","size_leaf_vector":"1"}},{"base_weights":[-5.623483E-1,-5.251076E0,2.676214E0,-2.1402886E0,-7.6943717E0,5.6924314E0,4.2194882E-1,-2.8950691E-2,1.967063E-2,-8.0869555E-2,-3.985619E-2,6.2782675E-2,-2.0458607E-2,4.030627E-2,-1.8614657E-2],"categories":[],"categories_nodes":[],"categories_segments":[],"categories_sizes":[],"default_left":[0,0,0,0,0,0,0,0,0,0,0,0,0,0,0],"id":67,"left_children":[1,3,5,7,9,11,13,-1,-1,-1,-1,-1,-1,-1,-1],"loss_changes":[1.0445968E4,2.119293E3,2.7649353E3,3.9321344E2,1.9636035E2,8.016504E2,1.9356884E3,0E0,0E0,0E0,0E0,0E0,0E0,0E0,0E0],"parents":[2147483647,0,0,1,1,2,2,3,3,4,4,5,5,6,6],"right_children":[2,4,6,8,10,12,14,-1,-1,-1,-1,-1,-1,-1,-1],"split_conditions":[9.123158E2,1.4269557E1,1.0167836E1,6.870528E-1,2.3987986E1,8.395323E1,2.210324E1,-2.8950691E-2,1.967063E-2,-8.0869555E-2,-3.985619E-2,6.2782675E-2,-2.0458607E-2,4.030627E-2,-1.8614657E-2],"split_indices":[23,7,7,25,0,6,20,0,0,0,0,0,0,0,0],"split_type":[0,0,0,0,0,0,0,0,0,0,0,0,0,0,0],"sum_hessian":[6.86E2,2.8E2,4.06E2,1.24E2,1.56E2,1.73E2,2.33E2,1.05E2,1.9E1,1.4E2,1.6E1,1.61E2,1.2E1,9E1,1.43E2],"tree_param":{"num_deleted":"0","num_feature":"27","num_nodes":"15","size_leaf_vector":"1"}},{"base_weights":[1.0367839E-1,2.281056E0,-7.1645465E0,4.0556483E0,-1.7036482E0,1.731706E0,-7.875907E0,7.695374E-2,2.6039014E-2,4.780582E-2,-3.0978715E-2,-2.6895117E-2,4.2785037E-2,-2.4181621E-2,-8.144975E-2],"categories":[],"categories_nodes":[],"categories_segments":[],"categories_sizes":[],"default_left":[0,0,0,0,0,0,0,0,0,0,0,0,0,0,0],"id":68,"left_children":[1,3,5,7,9,11,13,-1,-1,-1,-1,-1,-1,-1,-1],"loss_changes":[1.036633E4,3.5708076E3,9.692334E2,1.824064E3,1.4251223E3,1.4662645E2,1.8589453E2,0E0,0E0,0E0,0E0,0E0,0E0,0E0,0E0],"parents":[2147483647,0,0,1,1,2,2,3,3,4,4,5,5,6,6],"right_children":[2,4,6,8,10,12,14,-1,-1,-1,-1,-1,-1,-1,-1],"split_conditions":[1.5057983E1,7.71313E1,3.7642858E0,9.059075E0,6.482435E0,1.5398595E1,6.9637215E1,7.695374E-2,2.6039014E-2,4.780582E-2,-3.0978715E-2,-2.6895117E-2,4.2785037E-2,-2.4181621E-2,-8.144975E-2],"split_indices":[2,1,24,2,2,2,6,0,0,0,0,0,0,0,0],"split_type":[0,0,0,0,0,0,0,0,0,0,0,0,0,0,0],"sum_hessian":[6.53E2,5.03E2,1.5E2,3.48E2,1.55E2,1.1E1,1.39E2,9.8E1,2.5E2,2.7E1,1.28E2,4E0,7E0,7E0,1.32E2],"tree_param":{"num_deleted":"0","num_feature":"27","num_nodes":"15","size_leaf_vector":"1"}},{"base_weights":[-9.0155646E-2,-4.942714E0,3.0506885E0,-5.1039577E-1,-6.857198E0,6.799928E0,9.343143E-1,-2.449809E-2,2.85102E-2,-4.7451925E-2,-7.838457E-2,8.2435556E-2,-6.4139324E-3,7.676594E-2,-6.0105515E-3],"categories":[],"categories_nodes":[],"categories_segments":[],"categories_sizes":[],"default_left":[0,0,0,0,0,0,0,0,0,0,0,0,0,0,0],"id":69,"left_children":[1,3,5,7,9,11,13,-1,-1,-1,-1,-1,-1,-1,-1],"loss_changes":[9.891332E3,2.1603286E3,3.1199553E3,5.154801E2,3.3169727E2,1.5307227E3,2.6236423E3,0E0,0E0,0E0,0E0,0E0,0E0,0E0,0E0],"parents":[2147483647,0,0,1,1,2,2,3,3,4,4,5,5,6,6],"right_children":[2,4,6,8,10,12,14,-1,-1,-1,-1,-1,-1,-1,-1],"split_conditions":[9.124082E2,1.1191494E1,2.210324E1,4.327756E-1,1.5585144E1,6.3E0,7.8629913E0,-2.449809E-2,2.85102E-2,-4.7451925E-2,-7.838457E-2,8.2435556E-2,-6.4139324E-3,7.676594E-2,-6.0105515E-3],"split_indices":[18,2,20,25,2,9,2,0,0,0,0,0,0,0,0],"split_type":[0,0,0,0,0,0,0,0,0,0,0,0,0,0,0],"sum_hessian":[6.47E2,2.54E2,3.93E2,7.7E1,1.77E2,1.41E2,2.52E2,4.9E1,2.8E1,5.8E1,1.19E2,1.18E2,2.3E1,4.6E1,2.06E2],"tree_param":{"num_deleted":"0","num_feature":"27","num_nodes":"15","size_leaf_vector":"1"}},{"base_weights":[-1.7350228E-1,3.071387E0,-5.090472E0,6.893E0,1.3537244E0,-1.026475E0,-7.116503E0,8.277092E-2,-9.205963E-4,-1.9848712E-2,3.444735E-2,5.4757975E-2,-2.5688998E-2,-7.2544694E-2,8.237932E-2],"categories":[],"categories_nodes":[],"categories_segments":[],"categories_sizes":[],"default_left":[0,0,0,0,0,0,0,0,0,0,0,0,0,0,0],"id":70,"left_children":[1,3,5,7,9,11,13,-1,-1,-1,-1,-1,-1,-1,-1],"loss_changes":[1.0354489E4,2.5572874E3,2.1170112E3,1.1705854E3,1.8986991E3,8.8661304E2,4.241289E2,0E0,0E0,0E0,0E0,0E0,0E0,0E0,0E0],"parents":[2147483647,0,0,1,1,2,2,3,3,4,4,5,5,6,6],"right_children":[2,4,6,8,10,12,14,-1,-1,-1,-1,-1,-1,-1,-1],"split_conditions":[1.27384615E1,2.2108671E1,1.6E0,3.1085714E1,4.405188E-1,2.1283472E1,1.282E2,8.277092E-2,-9.205963E-4,-1.9848712E-2,3.444735E-2,5.4757975E-2,-2.5688998E-2,-7.2544694E-2,8.237932E-2],"split_indices":[2,15,9,19,25,0,9,0,0,0,0,0,0,0,0],"split_type":[0,0,0,0,0,0,0,0,0,0,0,0,0,0,0],"sum_hessian":[6.47E2,3.9E2,2.57E2,1.2E2,2.7E2,8.6E1,1.71E2,1E2,2E1,1.04E2,1.66E2,1.6E1,7E1,1.7E2,1E0],"tree_param":{"num_deleted":"0","num_feature":"27","num_nodes":"15","size_leaf_vector":"1"}},{"base_weights":[-5.8644377E-2,2.2641532E0,-6.9857016E0,3.9274206E0,-1.5384115E0,-2.4767535E0,-7.8573484E0,7.201661E-2,2.0327339E-2,8.65176E-2,-2.9404176E-2,-5.421726E-2,-1.0966816E-2,-8.109961E-2,-1.82697E-2],"categories":[],"categories_nodes":[],"categories_segments":[],"categories_sizes":[],"default_left":[0,0,0,0,0,0,0,0,0,0,0,0,0,0,0],"id":71,"left_children":[1,3,5,7,9,11,13,-1,-1,-1,-1,-1,-1,-1,-1],"loss_changes":[1.0892759E4,3.2126558E3,6.486748E2,2.1752534E3,2.2398757E3,1.11918045E2,2.0149805E2,0E0,0E0,0E0,0E0,0E0,0E0,0E0,0E0],"parents":[2147483647,0,0,1,1,2,2,3,3,4,4,5,5,6,6],"right_children":[2,4,6,8,10,12,14,-1,-1,-1,-1,-1,-1,-1,-1],"split_conditions":[1.4756188E1,7E0,1.9000001E0,2.2211548E1,6.3948635E1,-9.1237473E-1,2.4667452E1,7.201661E-2,2.0327339E-2,8.65176E-2,-2.9404176E-2,-5.421726E-2,-1.0966816E-2,-8.109961E-2,-1.82697E-2],"split_indices":[7,4,4,15,6,26,15,0,0,0,0,0,0,0,0],"split_type":[0,0,0,0,0,0,0,0,0,0,0,0,0,0,0],"sum_hessian":[6.75E2,5.06E2,1.69E2,3.52E2,1.54E2,2.8E1,1.41E2,1.28E2,2.24E2,1.8E1,1.36E2,8E0,2E1,1.35E2,6E0],"tree_param":{"num_deleted":"0","num_feature":"27","num_nodes":"15","size_leaf_vector":"1"}},{"base_weights":[1.2000805E-2,3.1681397E0,-5.02748E0,5.7304797E0,5.4955554E-1,-6.658947E0,-4.5732576E-1,6.7187673E-3,7.505078E-2,2.4344897E-2,-3.9905418E-2,-4.544535E-2,-7.975133E-2,1.2526381E-1,-1.5140669E-2],"categories":[],"categories_nodes":[],"categories_segments":[],"categories_sizes":[],"default_left":[0,0,0,0,0,0,0,0,0,0,0,0,0,0,0],"id":72,"left_children":[1,3,5,7,9,11,13,-1,-1,-1,-1,-1,-1,-1,-1],"loss_changes":[1.0036268E4,2.600215E3,1.8087759E3,1.7544478E3,1.6613673E3,4.6190723E2,9.107929E2,0E0,0E0,0E0,0E0,0E0,0E0,0E0,0E0],"parents":[2147483647,0,0,1,1,2,2,3,3,4,4,5,5,6,6],"right_children":[2,4,6,8,10,12,14,-1,-1,-1,-1,-1,-1,-1,-1],"split_conditions":[1.2420821E1,1.0167836E1,9.128528E2,9.125087E2,7.66355E1,1.568377E1,8.071293E0,6.7187673E-3,7.505078E-2,2.4344897E-2,-3.9905418E-2,-4.544535E-2,-7.975133E-2,1.2526381E-1,-1.5140669E-2],"split_indices":[22,2,8,23,1,2,2,0,0,0,0,0,0,0,0],"split_type":[0,0,0,0,0,0,0,0,0,0,0,0,0,0,0],"sum_hessian":[6.29E2,3.87E2,2.42E2,1.95E2,1.92E2,1.78E2,6.4E1,5.1E1,1.44E2,1.36E2,5.6E1,7E1,1.08E2,4E0,6E1],"tree_param":{"num_deleted":"0","num_feature":"27","num_nodes":"15","size_leaf_vector":"1"}},{"base_weights":[5.1368785E-1,3.2926056E0,-5.231855E0,4.8495507E0,-3.0623507E-1,-7.114958E0,-5.2387606E-2,9.960152E-2,3.942884E-2,-3.925368E-2,3.2634515E-2,-7.5389974E-2,-1.9358324E-2,7.8122884E-2,-2.1029033E-2],"categories":[],"categories_nodes":[],"categories_segments":[],"categories_sizes":[],"default_left":[0,0,0,0,0,0,0,0,0,0,0,0,0,0,0],"id":73,"left_children":[1,3,5,7,9,11,13,-1,-1,-1,-1,-1,-1,-1,-1],"loss_changes":[1.0283616E4,2.433273E3,2.0478555E3,1.3647124E3,1.7181407E3,3.2361377E2,9.3564703E2,0E0,0E0,0E0,0E0,0E0,0E0,0E0,0E0],"parents":[2147483647,0,0,1,1,2,2,3,3,4,4,5,5,6,6],"right_children":[2,4,6,8,10,12,14,-1,-1,-1,-1,-1,-1,-1,-1],"split_conditions":[1.3212833E1,1.1789922E1,-1.2910296E-2,6.8164086E0,2.1516098E-2,2.506889E1,1.1010371E1,9.960152E-2,3.942884E-2,-3.925368E-2,3.2634515E-2,-7.5389974E-2,-1.9358324E-2,7.8122884E-2,-2.1029033E-2],"split_indices":[2,22,26,7,26,0,22,0,0,0,0,0,0,0,0],"split_type":[0,0,0,0,0,0,0,0,0,0,0,0,0,0,0],"sum_hessian":[6.42E2,4.33E2,2.09E2,3.02E2,1.31E2,1.53E2,5.6E1,4.4E1,2.58E2,6.5E1,6.6E1,1.41E2,1.2E1,1.1E1,4.5E1],"tree_param":{"num_deleted":"0","num_feature":"27","num_nodes":"15","size_leaf_vector":"1"}},{"base_weights":[2.0241836E-1,3.63355E0,-4.5161104E0,5.5689187E0,-2.5029733E0,-3.8846686E-1,-6.915878E0,7.571659E-2,2.8915435E-2,1.1236421E-2,-4.710821E-2,5.1086545E-2,-1.8408548E-2,-7.025904E-2,6.2243793E-2],"categories":[],"categories_nodes":[],"categories_segments":[],"categories_sizes":[],"default_left":[0,0,0,0,0,0,0,0,0,0,0,0,0,0,0],"id":74,"left_children":[1,3,5,7,9,11,13,-1,-1,-1,-1,-1,-1,-1,-1],"loss_changes":[1.0766498E4,4.586367E3,2.7708203E3,1.5491982E3,7.499457E2,8.397353E2,2.996338E2,0E0,0E0,0E0,0E0,0E0,0E0,0E0,0E0],"parents":[2147483647,0,0,1,1,2,2,3,3,4,4,5,5,6,6],"right_children":[2,4,6,8,10,12,14,-1,-1,-1,-1,-1,-1,-1,-1],"split_conditions":[1.2360139E1,7.909854E1,1.9000001E0,1.0834705E1,7.9456763E0,2.1476875E1,1.221E2,7.571659E-2,2.8915435E-2,1.1236421E-2,-4.710821E-2,5.1086545E-2,-1.8408548E-2,-7.025904E-2,6.2243793E-2],"split_indices":[2,1,4,22,2,5,4,0,0,0,0,0,0,0,0],"split_type":[0,0,0,0,0,0,0,0,0,0,0,0,0,0,0],"sum_hessian":[6.63E2,3.84E2,2.79E2,2.92E2,9.2E1,1.03E2,1.76E2,1.66E2,1.26E2,3.5E1,5.7E1,2.1E1,8.2E1,1.75E2,1E0],"tree_param":{"num_deleted":"0","num_feature":"27","num_nodes":"15","size_leaf_vector":"1"}},{"base_weights":[-7.633317E-2,-5.082802E0,2.7378588E0,-2.6739457E0,-7.232199E0,5.751113E0,1.6518477E-1,1.06937215E-2,-3.5819214E-2,2.6644343E-3,-7.4704744E-2,1.4964259E-1,4.887418E-2,2.1234334E-2,-3.1810958E-2],"categories":[],"categories_nodes":[],"categories_segments":[],"categories_sizes":[],"default_left":[0,0,0,0,0,0,0,0,0,0,0,0,0,0,0],"id":75,"left_children":[1,3,5,7,9,11,13,-1,-1,-1,-1,-1,-1,-1,-1],"loss_changes":[9.749527E3,1.2698813E3,3.4332397E3,4.082926E2,2.360542E2,1.5501621E3,1.5794387E3,0E0,0E0,0E0,0E0,0E0,0E0,0E0,0E0],"parents":[2147483647,0,0,1,1,2,2,3,3,4,4,5,5,6,6],"right_children":[2,4,6,8,10,12,14,-1,-1,-1,-1,-1,-1,-1,-1],"split_conditions":[9.122043E2,1.5585144E1,1.0426058E1,2.3E0,9.758866E0,6.567797E0,1E-1,1.06937215E-2,-3.5819214E-2,2.6644343E-3,-7.4704744E-2,1.4964259E-1,4.887418E-2,2.1234334E-2,-3.1810958E-2],"split_indices":[23,7,7,4,22,17,4,0,0,0,0,0,0,0,0],"split_type":[0,0,0,0,0,0,0,0,0,0,0,0,0,0,0],"sum_hessian":[6.9E2,2.48E2,4.42E2,1.18E2,1.3E2,2.03E2,2.39E2,2.3E1,9.5E1,4E0,1.26E2,1.6E1,1.87E2,1.51E2,8.8E1],"tree_param":{"num_deleted":"0","num_feature":"27","num_nodes":"15","size_leaf_vector":"1"}},{"base_weights":[5.7112012E-2,-4.6223073E0,3.238965E0,-7.6616086E-2,-6.375935E0,5.0442986E0,3.0787855E-1,-1.2166743E-2,5.1910847E-2,-4.0433783E-2,-7.646319E-2,8.270122E-2,3.8191743E-2,7.356511E-2,-6.9356444E-3],"categories":[],"categories_nodes":[],"categories_segments":[],"categories_sizes":[],"default_left":[0,0,0,0,0,0,0,0,0,0,0,0,0,0,0],"id":76,"left_children":[1,3,5,7,9,11,13,-1,-1,-1,-1,-1,-1,-1,-1],"loss_changes":[9.380294E3,2.0322314E3,1.9827925E3,4.3871085E2,5.143198E2,8.852871E2,1.02156995E3,0E0,0E0,0E0,0E0,0E0,0E0,0E0,0E0],"parents":[2147483647,0,0,1,1,2,2,3,3,4,4,5,5,6,6],"right_children":[2,4,6,8,10,12,14,-1,-1,-1,-1,-1,-1,-1,-1],"split_conditions":[9.124552E2,1.1191494E1,1.1487541E1,2.5748404E1,4.8E0,2.1533821E1,2.0493889E1,-1.2166743E-2,5.1910847E-2,-4.0433783E-2,-7.646319E-2,8.270122E-2,3.8191743E-2,7.356511E-2,-6.9356444E-3],"split_indices":[18,2,2,0,4,0,5,0,0,0,0,0,0,0,0],"split_type":[0,0,0,0,0,0,0,0,0,0,0,0,0,0,0],"sum_hessian":[6.28E2,2.54E2,3.74E2,7.1E1,1.83E2,2.31E2,1.43E2,5.9E1,1.2E1,6.6E1,1.17E2,6.2E1,1.69E2,1.7E1,1.26E2],"tree_param":{"num_deleted":"0","num_feature":"27","num_nodes":"15","size_leaf_vector":"1"}},{"base_weights":[-9.7201616E-2,-5.3165054E0,2.9824307E0,-3.052537E0,-7.5167727E0,5.1177225E0,-6.105072E-1,-3.4841254E-2,4.2889584E-2,-7.783494E-2,1.211792E-3,6.2198266E-2,-1.6370628E-2,1.528116E-2,-4.4408023E-2],"categories":[],"categories_nodes":[],"categories_segments":[],"categories_sizes":[],"default_left":[0,0,0,0,0,0,0,0,0,0,0,0,0,0,0],"id":77,"left_children":[1,3,5,7,9,11,13,-1,-1,-1,-1,-1,-1,-1,-1],"loss_changes":[1.0222552E4,1.1526504E3,3.0719124E3,3.8882703E2,2.433706E2,1.8787471E3,1.2355199E3,0E0,0E0,0E0,0E0,0E0,0E0,0E0,0E0],"parents":[2147483647,0,0,1,1,2,2,3,3,4,4,5,5,6,6],"right_children":[2,4,6,8,10,12,14,-1,-1,-1,-1,-1,-1,-1,-1],"split_conditions":[9.121407E2,1.5585144E1,1.1438322E1,6.744436E-1,2.4464027E1,7.999271E1,5E-1,-3.4841254E-2,4.2889584E-2,-7.783494E-2,1.211792E-3,6.2198266E-2,-1.6370628E-2,1.528116E-2,-4.4408023E-2],"split_indices":[23,2,2,25,15,1,4,0,0,0,0,0,0,0,0],"split_type":[0,0,0,0,0,0,0,0,0,0,0,0,0,0,0],"sum_hessian":[6.34E2,2.35E2,3.99E2,1.17E2,1.18E2,2.5E2,1.49E2,1.11E2,6E0,1.14E2,4E0,2.15E2,3.5E1,9.6E1,5.3E1],"tree_param":{"num_deleted":"0","num_feature":"27","num_nodes":"15","size_leaf_vector":"1"}},{"base_weights":[-5.2205855E-1,2.4232318E0,-5.6527634E0,6.145699E0,7.5194675E-1,-6.680621E0,-1.2679762E0,7.611399E-2,-1.3955326E-2,3.5587188E-2,-1.6005855E-2,-7.1503334E-2,-2.6619606E-2,8.586892E-2,-2.6456246E-2],"categories":[],"categories_nodes":[],"categories_segments":[],"categories_sizes":[],"default_left":[0,0,0,0,0,0,0,0,0,0,0,0,0,0,0],"id":78,"left_children":[1,3,5,7,9,11,13,-1,-1,-1,-1,-1,-1,-1,-1],"loss_changes":[9.987232E3,2.6083264E3,1.0777007E3,1.4475366E3,1.9271755E3,3.4905078E2,6.6081525E2,0E0,0E0,0E0,0E0,0E0,0E0,0E0,0E0],"parents":[2147483647,0,0,1,1,2,2,3,3,4,4,5,5,6,6],"right_children":[2,4,6,8,10,12,14,-1,-1,-1,-1,-1,-1,-1,-1],"split_conditions":[1.3111851E1,2.2229206E1,9.1387036E2,8.365158E1,1.0160555E1,4.171936E-1,1.0703117E1,7.611399E-2,-1.3955326E-2,3.5587188E-2,-1.6005855E-2,-7.1503334E-2,-2.6619606E-2,8.586892E-2,-2.6456246E-2],"split_indices":[2,20,13,6,17,25,22,0,0,0,0,0,0,0,0],"split_type":[0,0,0,0,0,0,0,0,0,0,0,0,0,0,0],"sum_hessian":[6.59E2,4.19E2,2.4E2,1.29E2,2.9E2,1.94E2,4.6E1,1.08E2,2.1E1,1.32E2,1.58E2,1.73E2,2.1E1,5E0,4.1E1],"tree_param":{"num_deleted":"0","num_feature":"27","num_nodes":"15","size_leaf_vector":"1"}},{"base_weights":[-1.22441284E-1,-4.601721E0,2.8074977E0,4.672403E-1,-6.4088235E0,3.6145847E0,-2.6012053E0,8.710276E-2,-4.560692E-3,-6.76046E-2,-6.0019675E-3,5.267203E-2,8.065793E-3,1.1729156E-1,-3.409003E-2],"categories":[],"categories_nodes":[],"categories_segments":[],"categories_sizes":[],"default_left":[0,0,0,0,0,0,0,0,0,0,0,0,0,0,0],"id":79,"left_children":[1,3,5,7,9,11,13,-1,-1,-1,-1,-1,-1,-1,-1],"loss_changes":[8.596025E3,2.3754688E3,1.7380591E3,5.2912274E2,3.8606543E2,1.5967446E3,6.419384E2,0E0,0E0,0E0,0E0,0E0,0E0,0E0,0E0],"parents":[2147483647,0,0,1,1,2,2,3,3,4,4,5,5,6,6],"right_children":[2,4,6,8,10,12,14,-1,-1,-1,-1,-1,-1,-1,-1],"split_conditions":[9.124082E2,1.0802326E1,8.0162415E1,3.6751717E1,2.5257778E1,1.1438322E1,6.553838E0,8.710276E-2,-4.560692E-3,-6.76046E-2,-6.0019675E-3,5.267203E-2,8.065793E-3,1.1729156E-1,-3.409003E-2],"split_indices":[18,7,1,11,0,7,22,0,0,0,0,0,0,0,0],"split_type":[0,0,0,0,0,0,0,0,0,0,0,0,0,0,0],"sum_hessian":[6.53E2,2.58E2,3.95E2,6.8E1,1.9E2,3.44E2,5.1E1,6E0,6.2E1,1.79E2,1.1E1,2.16E2,1.28E2,2E0,4.9E1],"tree_param":{"num_deleted":"0","num_feature":"27","num_nodes":"15","size_leaf_vector":"1"}},{"base_weights":[-1.0278414E-2,-4.793731E0,2.8530004E0,-1.3542778E0,-6.3277717E0,3.7618318E0,-3.2632565E0,-2.1994956E-2,3.548145E-2,-6.6154234E-2,-3.1910788E-3,7.929792E-2,2.5158087E-2,5.477555E-2,-5.5729493E-2],"categories":[],"categories_nodes":[],"categories_segments":[],"categories_sizes":[],"default_left":[0,0,0,0,0,0,0,0,0,0,0,0,0,0,0],"id":80,"left_children":[1,3,5,7,9,11,13,-1,-1,-1,-1,-1,-1,-1,-1],"loss_changes":[9.217629E3,1.3210483E3,2.352466E3,3.351496E2,2.9863135E2,1.8860186E3,1.1408986E3,0E0,0E0,0E0,0E0,0E0,0E0,0E0,0E0],"parents":[2147483647,0,0,1,1,2,2,3,3,4,4,5,5,6,6],"right_children":[2,4,6,8,10,12,14,-1,-1,-1,-1,-1,-1,-1,-1],"split_conditions":[9.122043E2,1.2002626E1,8.0989456E1,2.4853958E1,2.4887987E1,2.1449791E1,7.235421E0,-2.1994956E-2,3.548145E-2,-6.6154234E-2,-3.1910788E-3,7.929792E-2,2.5158087E-2,5.477555E-2,-5.5729493E-2],"split_indices":[23,7,1,0,0,0,7,0,0,0,0,0,0,0,0],"split_type":[0,0,0,0,0,0,0,0,0,0,0,0,0,0,0],"sum_hessian":[6.71E2,2.51E2,4.2E2,7.8E1,1.73E2,3.66E2,5.4E1,6.7E1,1.1E1,1.65E2,8E0,8.3E1,2.83E2,1.1E1,4.3E1],"tree_param":{"num_deleted":"0","num_feature":"27","num_nodes":"15","size_leaf_vector":"1"}},{"base_weights":[1.5280165E-1,2.8320282E0,-5.282562E0,4.3874464E0,-1.649549E0,-6.3687043E0,-6.2371075E-1,8.186225E-2,2.8285256E-2,2.1056015E-2,-4.055094E-2,-5.044412E-2,-7.3998325E-2,1.1447802E-1,-1.5362961E-2],"categories":[],"categories_nodes":[],"categories_segments":[],"categories_sizes":[],"default_left":[0,0,0,0,0,0,0,0,0,0,0,0,0,0,0],"id":81,"left_children":[1,3,5,7,9,11,13,-1,-1,-1,-1,-1,-1,-1,-1],"loss_changes":[9.30588E3,2.9907085E3,1.0637251E3,1.8600391E3,1.0112219E3,1.961748E2,4.692549E2,0E0,0E0,0E0,0E0,0E0,0E0,0E0,0E0],"parents":[2147483647,0,0,1,1,2,2,3,3,4,4,5,5,6,6],"right_children":[2,4,6,8,10,12,14,-1,-1,-1,-1,-1,-1,-1,-1],"split_conditions":[1.3496424E1,7.778256E1,9.135398E2,2.2033125E1,8.461417E0,1.6724213E1,1.0402994E1,8.186225E-2,2.8285256E-2,2.1056015E-2,-4.055094E-2,-5.044412E-2,-7.3998325E-2,1.1447802E-1,-1.5362961E-2],"split_indices":[7,1,13,0,2,2,17,0,0,0,0,0,0,0,0],"split_type":[0,0,0,0,0,0,0,0,0,0,0,0,0,0,0],"sum_hessian":[6.37E2,4.27E2,2.1E2,3.17E2,1.1E2,1.7E2,4E1,9.1E1,2.26E2,4.3E1,6.7E1,7.7E1,9.3E1,2E0,3.8E1],"tree_param":{"num_deleted":"0","num_feature":"27","num_nodes":"15","size_leaf_vector":"1"}},{"base_weights":[7.0694014E-2,-4.60012E0,3.0211298E0,-1.1097053E0,-6.234841E0,4.3729525E0,-1.8239721E0,6.1916985E-2,-1.6790215E-2,-3.0405995E-2,-6.82494E-2,6.067728E-2,4.8614168E-3,4.037297E-2,-2.8290061E-2],"categories":[],"categories_nodes":[],"categories_segments":[],"categories_sizes":[],"default_left":[0,0,0,0,0,0,0,0,0,0,0,0,0,0,0],"id":82,"left_children":[1,3,5,7,9,11,13,-1,-1,-1,-1,-1,-1,-1,-1],"loss_changes":[8.7923545E3,1.4024272E3,2.568916E3,3.429406E2,2.9591406E2,2.0127554E3,5.180282E2,0E0,0E0,0E0,0E0,0E0,0E0,0E0,0E0],"parents":[2147483647,0,0,1,1,2,2,3,3,4,4,5,5,6,6],"right_children":[2,4,6,8,10,12,14,-1,-1,-1,-1,-1,-1,-1,-1],"split_conditions":[9.123995E2,1.2181031E1,7.747282E1,3.6952366E1,7.537924E1,1.160001E1,6.8164086E0,6.1916985E-2,-1.6790215E-2,-3.0405995E-2,